module.exports = {"layers":[{"0":{},"1":{},"2":{},"3":{},"4":{},"5":{},"6":{},"7":{},"8":{},"9":{},"10":{},"11":{},"12":{},"13":{},"14":{},"15":{},"16":{},"17":{},"18":{},"19":{},"20":{},"21":{},"22":{},"23":{},"24":{},"25":{},"26":{},"27":{},"28":{},"29":{},"30":{},"31":{},"32":{},"33":{},"34":{},"35":{},"36":{},"37":{},"38":{},"39":{},"40":{},"41":{},"42":{},"43":{},"44":{},"45":{},"46":{},"47":{},"48":{},"49":{},"50":{},"51":{},"52":{},"53":{},"54":{},"55":{},"56":{},"57":{},"58":{},"59":{},"60":{},"61":{},"62":{},"63":{},"64":{},"65":{},"66":{},"67":{},"68":{},"69":{},"70":{},"71":{},"72":{},"73":{},"74":{},"75":{},"76":{},"77":{},"78":{},"79":{},"80":{},"81":{},"82":{},"83":{},"84":{},"85":{},"86":{},"87":{},"88":{},"89":{},"90":{},"91":{},"92":{},"93":{},"94":{},"95":{},"96":{},"97":{},"98":{},"99":{},"100":{},"101":{},"102":{},"103":{},"104":{},"105":{},"106":{},"107":{},"108":{},"109":{},"110":{},"111":{},"112":{},"113":{},"114":{},"115":{},"116":{},"117":{},"118":{},"119":{},"120":{},"121":{},"122":{},"123":{},"124":{},"125":{},"126":{},"127":{},"128":{},"129":{},"130":{},"131":{},"132":{},"133":{},"134":{},"135":{},"136":{},"137":{},"138":{},"139":{},"140":{},"141":{},"142":{},"143":{},"144":{},"145":{},"146":{},"147":{},"148":{},"149":{},"150":{},"151":{},"152":{},"153":{},"154":{},"155":{},"156":{},"157":{},"158":{},"159":{},"160":{},"161":{},"162":{},"163":{},"164":{},"165":{},"166":{},"167":{},"168":{},"169":{},"170":{},"171":{},"172":{},"173":{},"174":{},"175":{},"176":{},"177":{},"178":{},"179":{},"180":{},"181":{},"182":{},"183":{},"184":{},"185":{},"186":{},"187":{},"188":{},"189":{},"190":{},"191":{},"192":{},"193":{},"194":{},"195":{},"196":{},"197":{},"198":{},"199":{},"200":{},"201":{},"202":{},"203":{},"204":{},"205":{},"206":{},"207":{},"208":{},"209":{},"210":{},"211":{},"212":{},"213":{},"214":{},"215":{},"216":{},"217":{},"218":{},"219":{},"220":{},"221":{},"222":{},"223":{},"224":{},"225":{},"226":{},"227":{},"228":{},"229":{},"230":{},"231":{},"232":{},"233":{},"234":{},"235":{},"236":{},"237":{},"238":{},"239":{},"240":{},"241":{},"242":{},"243":{},"244":{},"245":{},"246":{},"247":{},"248":{},"249":{},"250":{},"251":{},"252":{},"253":{},"254":{},"255":{},"256":{},"257":{},"258":{},"259":{},"260":{},"261":{},"262":{},"263":{},"264":{},"265":{},"266":{},"267":{},"268":{},"269":{},"270":{},"271":{},"272":{},"273":{},"274":{},"275":{},"276":{},"277":{},"278":{},"279":{},"280":{},"281":{},"282":{},"283":{},"284":{},"285":{},"286":{},"287":{},"288":{},"289":{},"290":{},"291":{},"292":{},"293":{},"294":{},"295":{},"296":{},"297":{},"298":{},"299":{},"300":{},"301":{},"302":{},"303":{},"304":{},"305":{},"306":{},"307":{},"308":{},"309":{},"310":{},"311":{},"312":{},"313":{},"314":{},"315":{},"316":{},"317":{},"318":{},"319":{},"320":{},"321":{},"322":{},"323":{},"324":{},"325":{},"326":{},"327":{},"328":{},"329":{},"330":{},"331":{},"332":{},"333":{},"334":{},"335":{},"336":{},"337":{},"338":{},"339":{},"340":{},"341":{},"342":{},"343":{},"344":{},"345":{},"346":{},"347":{},"348":{},"349":{},"350":{},"351":{},"352":{},"353":{},"354":{},"355":{},"356":{},"357":{},"358":{},"359":{},"360":{},"361":{},"362":{},"363":{},"364":{},"365":{},"366":{},"367":{},"368":{},"369":{},"370":{},"371":{},"372":{},"373":{},"374":{},"375":{},"376":{},"377":{},"378":{},"379":{},"380":{},"381":{},"382":{},"383":{},"384":{},"385":{},"386":{},"387":{},"388":{},"389":{},"390":{},"391":{},"392":{},"393":{},"394":{},"395":{},"396":{},"397":{},"398":{},"399":{},"400":{},"401":{},"402":{},"403":{},"404":{},"405":{},"406":{},"407":{},"408":{},"409":{},"410":{},"411":{},"412":{},"413":{},"414":{},"415":{},"416":{},"417":{},"418":{},"419":{},"420":{},"421":{},"422":{},"423":{},"424":{},"425":{},"426":{},"427":{},"428":{},"429":{},"430":{},"431":{},"432":{},"433":{},"434":{},"435":{},"436":{},"437":{},"438":{},"439":{},"440":{},"441":{},"442":{},"443":{},"444":{},"445":{},"446":{},"447":{},"448":{},"449":{},"450":{},"451":{},"452":{},"453":{},"454":{},"455":{},"456":{},"457":{},"458":{},"459":{},"460":{},"461":{},"462":{},"463":{},"464":{},"465":{},"466":{},"467":{},"468":{},"469":{},"470":{},"471":{},"472":{},"473":{},"474":{},"475":{},"476":{},"477":{},"478":{},"479":{},"480":{},"481":{},"482":{},"483":{},"484":{},"485":{},"486":{},"487":{},"488":{},"489":{},"490":{},"491":{},"492":{},"493":{},"494":{},"495":{},"496":{},"497":{},"498":{},"499":{},"500":{},"501":{},"502":{},"503":{},"504":{},"505":{},"506":{},"507":{},"508":{},"509":{},"510":{},"511":{},"512":{},"513":{},"514":{},"515":{},"516":{},"517":{},"518":{},"519":{},"520":{},"521":{},"522":{},"523":{},"524":{},"525":{},"526":{},"527":{},"528":{},"529":{},"530":{},"531":{},"532":{},"533":{},"534":{},"535":{},"536":{},"537":{},"538":{},"539":{},"540":{},"541":{},"542":{},"543":{},"544":{},"545":{},"546":{},"547":{},"548":{},"549":{},"550":{},"551":{},"552":{},"553":{},"554":{},"555":{},"556":{},"557":{},"558":{},"559":{},"560":{},"561":{},"562":{},"563":{},"564":{},"565":{},"566":{},"567":{},"568":{},"569":{},"570":{},"571":{},"572":{},"573":{},"574":{},"575":{},"576":{},"577":{},"578":{},"579":{},"580":{},"581":{},"582":{},"583":{},"584":{},"585":{},"586":{},"587":{},"588":{},"589":{},"590":{},"591":{},"592":{},"593":{},"594":{},"595":{},"596":{},"597":{},"598":{},"599":{},"600":{},"601":{},"602":{},"603":{},"604":{},"605":{},"606":{},"607":{},"608":{},"609":{},"610":{},"611":{},"612":{},"613":{},"614":{},"615":{},"616":{},"617":{},"618":{},"619":{},"620":{},"621":{},"622":{},"623":{},"624":{},"625":{},"626":{},"627":{},"628":{},"629":{},"630":{},"631":{},"632":{},"633":{},"634":{},"635":{},"636":{},"637":{},"638":{},"639":{},"640":{},"641":{},"642":{},"643":{},"644":{},"645":{},"646":{},"647":{},"648":{},"649":{},"650":{},"651":{},"652":{},"653":{},"654":{},"655":{},"656":{},"657":{},"658":{},"659":{},"660":{},"661":{},"662":{},"663":{},"664":{},"665":{},"666":{},"667":{},"668":{},"669":{},"670":{},"671":{},"672":{},"673":{},"674":{},"675":{},"676":{},"677":{},"678":{},"679":{},"680":{},"681":{},"682":{},"683":{},"684":{},"685":{},"686":{},"687":{},"688":{},"689":{},"690":{},"691":{},"692":{},"693":{},"694":{},"695":{},"696":{},"697":{},"698":{},"699":{},"700":{},"701":{},"702":{},"703":{},"704":{},"705":{},"706":{},"707":{},"708":{},"709":{},"710":{},"711":{},"712":{},"713":{},"714":{},"715":{},"716":{},"717":{},"718":{},"719":{},"720":{},"721":{},"722":{},"723":{},"724":{},"725":{},"726":{},"727":{},"728":{},"729":{},"730":{},"731":{},"732":{},"733":{},"734":{},"735":{},"736":{},"737":{},"738":{},"739":{},"740":{},"741":{},"742":{},"743":{},"744":{},"745":{},"746":{},"747":{},"748":{},"749":{},"750":{},"751":{},"752":{},"753":{},"754":{},"755":{},"756":{},"757":{},"758":{},"759":{},"760":{},"761":{},"762":{},"763":{},"764":{},"765":{},"766":{},"767":{},"768":{},"769":{},"770":{},"771":{},"772":{},"773":{},"774":{},"775":{},"776":{},"777":{},"778":{},"779":{},"780":{},"781":{},"782":{},"783":{},"784":{},"785":{},"786":{},"787":{},"788":{},"789":{},"790":{},"791":{},"792":{},"793":{},"794":{},"795":{},"796":{},"797":{},"798":{},"799":{},"800":{},"801":{},"802":{},"803":{},"804":{},"805":{},"806":{},"807":{},"808":{},"809":{},"810":{},"811":{},"812":{},"813":{},"814":{},"815":{},"816":{},"817":{},"818":{},"819":{},"820":{},"821":{},"822":{},"823":{},"824":{},"825":{},"826":{},"827":{},"828":{},"829":{},"830":{},"831":{},"832":{},"833":{},"834":{},"835":{},"836":{},"837":{},"838":{},"839":{},"840":{},"841":{},"842":{},"843":{},"844":{},"845":{},"846":{},"847":{},"848":{},"849":{},"850":{},"851":{},"852":{},"853":{},"854":{},"855":{},"856":{},"857":{},"858":{},"859":{},"860":{},"861":{},"862":{},"863":{},"864":{},"865":{},"866":{},"867":{},"868":{},"869":{},"870":{},"871":{},"872":{},"873":{},"874":{},"875":{},"876":{},"877":{},"878":{},"879":{},"880":{},"881":{},"882":{},"883":{},"884":{},"885":{},"886":{},"887":{},"888":{},"889":{},"890":{},"891":{},"892":{},"893":{},"894":{},"895":{},"896":{},"897":{},"898":{},"899":{},"900":{},"901":{},"902":{},"903":{},"904":{},"905":{},"906":{},"907":{},"908":{},"909":{},"910":{},"911":{},"912":{},"913":{},"914":{},"915":{},"916":{},"917":{},"918":{},"919":{},"920":{},"921":{},"922":{},"923":{},"924":{},"925":{},"926":{},"927":{},"928":{},"929":{},"930":{},"931":{},"932":{},"933":{},"934":{},"935":{},"936":{},"937":{},"938":{},"939":{},"940":{},"941":{},"942":{},"943":{},"944":{},"945":{},"946":{},"947":{},"948":{},"949":{},"950":{},"951":{},"952":{},"953":{},"954":{},"955":{},"956":{},"957":{},"958":{},"959":{},"960":{},"961":{},"962":{},"963":{},"964":{},"965":{},"966":{},"967":{},"968":{},"969":{},"970":{},"971":{},"972":{},"973":{},"974":{},"975":{},"976":{},"977":{},"978":{},"979":{},"980":{},"981":{},"982":{},"983":{},"984":{},"985":{},"986":{},"987":{},"988":{},"989":{},"990":{},"991":{},"992":{},"993":{},"994":{},"995":{},"996":{},"997":{},"998":{},"999":{},"1000":{},"1001":{},"1002":{},"1003":{},"1004":{},"1005":{},"1006":{},"1007":{},"1008":{},"1009":{},"1010":{},"1011":{},"1012":{},"1013":{},"1014":{},"1015":{},"1016":{},"1017":{},"1018":{},"1019":{},"1020":{},"1021":{},"1022":{},"1023":{},"1024":{},"1025":{},"1026":{},"1027":{},"1028":{},"1029":{},"1030":{},"1031":{},"1032":{},"1033":{},"1034":{},"1035":{},"1036":{},"1037":{},"1038":{},"1039":{},"1040":{},"1041":{},"1042":{},"1043":{},"1044":{},"1045":{},"1046":{},"1047":{},"1048":{},"1049":{},"1050":{},"1051":{},"1052":{},"1053":{},"1054":{},"1055":{},"1056":{},"1057":{},"1058":{},"1059":{},"1060":{},"1061":{},"1062":{},"1063":{},"1064":{},"1065":{},"1066":{},"1067":{},"1068":{},"1069":{},"1070":{},"1071":{},"1072":{},"1073":{},"1074":{},"1075":{},"1076":{},"1077":{},"1078":{},"1079":{},"1080":{},"1081":{},"1082":{},"1083":{},"1084":{},"1085":{},"1086":{},"1087":{},"1088":{},"1089":{},"1090":{},"1091":{},"1092":{},"1093":{},"1094":{},"1095":{},"1096":{},"1097":{},"1098":{},"1099":{},"1100":{},"1101":{},"1102":{},"1103":{},"1104":{},"1105":{},"1106":{},"1107":{},"1108":{},"1109":{},"1110":{},"1111":{},"1112":{},"1113":{},"1114":{},"1115":{},"1116":{},"1117":{},"1118":{},"1119":{},"1120":{},"1121":{},"1122":{},"1123":{},"1124":{},"1125":{},"1126":{},"1127":{},"1128":{},"1129":{},"1130":{},"1131":{},"1132":{},"1133":{},"1134":{},"1135":{},"1136":{},"1137":{},"1138":{},"1139":{},"1140":{},"1141":{},"1142":{},"1143":{},"1144":{},"1145":{},"1146":{},"1147":{},"1148":{},"1149":{},"1150":{},"1151":{},"1152":{},"1153":{},"1154":{},"1155":{},"1156":{},"1157":{},"1158":{},"1159":{},"1160":{},"1161":{},"1162":{},"1163":{},"1164":{},"1165":{},"1166":{},"1167":{},"1168":{},"1169":{},"1170":{},"1171":{},"1172":{},"1173":{},"1174":{},"1175":{}},{"0":{"bias":-0.15765033168752637,"weights":{"0":0.1544970443284402,"1":0.0538802205097598,"2":-0.12244035756570644,"3":-0.19081373151220418,"4":-0.00446918441495183,"5":-0.01772353030845409,"6":0.11623684208327373,"7":0.13282253900304664,"8":0.1574026141045868,"9":-0.11930687456136002,"10":0.12408186450687005,"11":0.00641351882804093,"12":0.15051964927027703,"13":-0.08621910196474548,"14":0.011467640330760595,"15":-0.05313540972557889,"16":0.0000014382387267078302,"17":-0.1612728876205856,"18":-0.1964839565683425,"19":-0.07786060982934914,"20":0.06958185375757678,"21":0.10606651738115427,"22":0.17114311560705625,"23":0.08375989217702019,"24":-0.05915182193820609,"25":0.008605621510730847,"26":-0.15308035355370117,"27":0.192044349993119,"28":0.16210715557497904,"29":-0.1749681240653522,"30":0.10156237827392821,"31":-0.1696007603575224,"32":0.1728486105627222,"33":0.18012978111363337,"34":0.1882683228254206,"35":0.1481627758957375,"36":-0.0016721632908037372,"37":-0.1412969936514641,"38":0.06762999944409923,"39":-0.1731186279620999,"40":0.14949906163352697,"41":-0.06706419545927705,"42":-0.08819817307648611,"43":0.07792965901508857,"44":0.13517863514173362,"45":0.1442895958275499,"46":0.12297922620561177,"47":0.17717134608160562,"48":-0.17812650510472922,"49":-0.19456458900162732,"50":0.028060449212381145,"51":-0.023216315052579536,"52":-0.14718759657019237,"53":-0.021039843872141535,"54":-0.1848782042178347,"55":-0.03120527359513084,"56":-0.0973749245944744,"57":-0.13608968213174094,"58":-0.18459095550952373,"59":0.0559547506228953,"60":0.049810026201752164,"61":-0.1635649568578615,"62":-0.08122996191379551,"63":0.12358416788377541,"64":-0.1397428319991811,"65":-0.01034842185054413,"66":-0.03415994971049156,"67":0.15880233198443647,"68":-0.14436622267335275,"69":-0.08662499231028184,"70":-0.06647995444936387,"71":0.012114530844974904,"72":-0.01638695461496777,"73":0.1533535829663924,"74":-0.10184285656662717,"75":-0.02298273653766475,"76":-0.1991804072240736,"77":-0.1699972837163611,"78":-0.19106218420105733,"79":0.04110015662575358,"80":0.10643834975962947,"81":-0.012229312245777684,"82":0.17530070876107035,"83":-0.07994016478213659,"84":0.16691890227943448,"85":0.053773462369100467,"86":-0.10634527211202327,"87":0.12265210858339842,"88":0.1892275758387801,"89":-0.04313118044326423,"90":-0.17686853367076152,"91":-0.09835801512364352,"92":0.16063689324891772,"93":-0.10120104022953558,"94":0.17902505517528525,"95":0.19099576737681973,"96":0.12496283327611936,"97":0.14632020019375208,"98":-0.01766633304298449,"99":-0.11779487565947164,"100":-0.04304304133788037,"101":0.17005277576431838,"102":-0.16973310015032478,"103":-0.10566006211319362,"104":0.19683386228619315,"105":-0.18748835606618278,"106":-0.16270214016686,"107":-0.18606180064810454,"108":0.08731687465799094,"109":0.16145214377454192,"110":-0.04262634089232226,"111":0.0824627119731909,"112":-0.1157351612862536,"113":0.1808121117166776,"114":0.10196966392323094,"115":-0.04029396527944358,"116":-0.1870021971533315,"117":0.16244394195397888,"118":0.1261891489236407,"119":0.039957069122303436,"120":0.06752550713241803,"121":0.07278211471463737,"122":-0.03296555667124086,"123":0.05023424911158486,"124":0.02586901132470646,"125":-0.12758120152179458,"126":0.08951825586691206,"127":-0.1656987791766442,"128":0.113008155756963,"129":-0.13440424592756706,"130":-0.1937503838805295,"131":-0.13054118033320378,"132":-0.047200488718092834,"133":0.17380530963289345,"134":0.16823622462793383,"135":-0.08877958537494174,"136":0.0485344701592323,"137":0.014839121672454996,"138":-0.062396899886808445,"139":-0.11341228343553919,"140":0.18170788829322831,"141":-0.10655689548771627,"142":0.024426481160407177,"143":0.055347956247803254,"144":-0.040697250232606196,"145":-0.11632365108601037,"146":-0.1528301022921152,"147":-0.025617529673471084,"148":-0.09949346572596061,"149":0.061908795515399864,"150":0.14911714187823558,"151":0.13883977795669594,"152":0.13782984005016494,"153":-0.1781841494506443,"154":0.07251977105823779,"155":-0.16406913663182224,"156":0.002919063212429825,"157":-0.03579225400340729,"158":-0.08107611810284471,"159":0.010299922581385214,"160":0.007246645151858161,"161":-0.03600924400752849,"162":-0.10295467379329366,"163":-0.19523945561338704,"164":-0.05223483261889174,"165":-0.15395268011273364,"166":-0.18498222271963705,"167":0.1417713280616546,"168":0.004514304634765702,"169":-0.055138171686101606,"170":0.016829464411445203,"171":-0.17340760227167487,"172":-0.180915338903362,"173":0.0008868269435613227,"174":0.17237663289219274,"175":0.062459837699386914,"176":0.1498144522731317,"177":-0.049953851278058105,"178":0.07523611616741331,"179":-0.18248353517291066,"180":0.05517156022399913,"181":-0.09095463653274634,"182":-0.021055366321870658,"183":0.053572855079321025,"184":-0.1367333107496524,"185":0.09584901158415617,"186":-0.16419322413906284,"187":-0.18006637052319455,"188":0.04486744316466746,"189":0.20510365702197353,"190":0.10765436224954313,"191":-0.19711898684654516,"192":-0.1209320069117012,"193":0.15629115419871506,"194":-0.03214125819713535,"195":0.14343590047876228,"196":0.036021313564456536,"197":-0.14487539913626535,"198":0.1843731577817663,"199":-0.04016239185064719,"200":0.18242936539684995,"201":-0.008796545699918345,"202":0.19973170488991676,"203":0.04539723643419807,"204":0.07171677821178189,"205":0.19498808104726337,"206":-0.017273459760523215,"207":-0.10789669285507456,"208":-0.011389641632088535,"209":0.019786990856249704,"210":0.0006367418352592356,"211":0.14138415418747022,"212":-0.025770017567986806,"213":0.1383606989619896,"214":0.10257110857555324,"215":0.10126847077861229,"216":-0.002938076440879518,"217":-0.17610593644447328,"218":-0.19260381585951744,"219":-0.08949290070653919,"220":0.055187940576474206,"221":-0.07250432493405005,"222":-0.14573892841327393,"223":-0.04263300170955539,"224":-0.19455352964979777,"225":-0.05133894158654805,"226":-0.06182241126310417,"227":-0.14861331189877736,"228":0.06124392719836941,"229":-0.10865655952187037,"230":-0.08532726018700953,"231":0.18441396803701574,"232":0.08894437639409485,"233":0.08820264960981038,"234":-0.16099021829420976,"235":-0.17572414088692093,"236":0.17903816581656473,"237":0.16345725194152158,"238":0.1540913833487031,"239":-0.06702777824197895,"240":-0.12013353241838587,"241":-0.02177318669574595,"242":0.06360075343539065,"243":-0.1315827660028849,"244":0.1965852280918757,"245":-0.14948609077800493,"246":0.19133514507301888,"247":0.13269030649768815,"248":0.08254678668617943,"249":-0.11981067684434858,"250":0.1788876791547123,"251":0.13240168848647899,"252":0.057424998021732065,"253":0.11673087671282731,"254":0.06584084154746084,"255":0.18460756992524338,"256":0.007721031971279038,"257":0.00441489749500668,"258":-0.17271654467062203,"259":0.12642394816282138,"260":0.18597701709706968,"261":0.09619888334028807,"262":-0.19091085703191973,"263":-0.0897338391585176,"264":-0.18865640337354836,"265":0.16737351668699127,"266":-0.12624293539016396,"267":0.16084773944726957,"268":0.11974500375562831,"269":-0.003412158600123736,"270":-0.1695196362986358,"271":-0.03455019592815417,"272":-0.06169722690437398,"273":-0.018777740873121302,"274":-0.10878280422285848,"275":-0.17254690849634405,"276":0.04570189626567543,"277":0.17798424081602723,"278":-0.09361788633372235,"279":-0.1652283292754545,"280":-0.046845455934423415,"281":-0.033780156403942836,"282":0.13784594261110428,"283":0.07152453183025234,"284":0.09128929827256421,"285":0.1007504045072676,"286":-0.042426999553603996,"287":0.1693983797008534,"288":-0.05521877361774275,"289":0.18139501070271963,"290":-0.055812847560481355,"291":0.15585166516840973,"292":0.18950081869310526,"293":-0.13168081788301791,"294":-0.20000722046969338,"295":0.14145371098442083,"296":-0.021363212704069084,"297":-0.12845877062986474,"298":0.0741040181741033,"299":0.13898763878893947,"300":-0.17035877610767275,"301":0.16328215817527622,"302":0.09125361741278636,"303":0.18130992993761227,"304":0.0015707882282149917,"305":-0.1346065442166783,"306":-0.17969207112203733,"307":-0.1771611908644026,"308":-0.0904446737471103,"309":0.1372008065937985,"310":0.19120364554805747,"311":0.152766136335642,"312":-0.008736791559591799,"313":-0.03686278023046221,"314":0.1505755425566137,"315":0.06858267135799324,"316":-0.10991855221097144,"317":-0.12950236397829645,"318":-0.06504731325811261,"319":0.18756702282809878,"320":-0.14290820428335008,"321":-0.14089003899844654,"322":0.07401632767512409,"323":0.15141737900238547,"324":-0.11072186071905793,"325":-0.06161891281899585,"326":-0.1249889726955461,"327":0.19660012793156026,"328":-0.14834186833559887,"329":-0.0566561729748869,"330":0.0777315680941718,"331":0.15219511654630058,"332":-0.11167367428688073,"333":-0.13581966781860244,"334":-0.12342513202806434,"335":-0.016476996298111023,"336":-0.07256579055254085,"337":-0.044002700252338496,"338":0.1312348029010665,"339":0.017388412414478905,"340":0.1557437992491344,"341":0.09798085666822738,"342":-0.14440046619095712,"343":0.1482636130990741,"344":0.055727621965525866,"345":0.07586317624904294,"346":0.009016577116669418,"347":-0.06932509236047092,"348":-0.10458952882394433,"349":0.12629375608741805,"350":-0.02894470329033869,"351":-0.08535332288653398,"352":0.10861819379950402,"353":0.18501512510232015,"354":-0.017857234130096756,"355":-0.11208745082503274,"356":-0.1821819316432169,"357":-0.044623336038509036,"358":-0.0626897096275079,"359":-0.023933916138645935,"360":0.07024344277410947,"361":-0.024952177834736928,"362":-0.08044027717142933,"363":-0.17177169893255234,"364":-0.030678948846111605,"365":-0.07027989273344946,"366":-0.08589880557493117,"367":0.15615159721156777,"368":-0.0010041042629274305,"369":0.017220705959090785,"370":-0.025376137994210773,"371":0.025260623636818975,"372":0.06566743933409545,"373":0.11534710861783258,"374":0.05514928354667158,"375":0.1040831694701122,"376":0.008421890486788352,"377":-0.04514823886461186,"378":0.11933121781819271,"379":-0.13373129054463423,"380":-0.15336031043619958,"381":0.047566077061021006,"382":-0.026668820417234528,"383":-0.1940442971725027,"384":0.012872436316330954,"385":0.025775169175995725,"386":-0.12344991862451071,"387":-0.02920490012637989,"388":-0.15581289641507848,"389":0.006558306760087666,"390":-0.007133240680786536,"391":0.044095964802984826,"392":-0.16746671902864846,"393":-0.04308708498759203,"394":0.18416104602999875,"395":-0.13713984363013426,"396":-0.20092399260330002,"397":-0.11114529726573966,"398":0.06955513035066786,"399":0.0946389709924751,"400":-0.13408350635614483,"401":-0.07295392561668498,"402":-0.05638695305571142,"403":0.1912296696029671,"404":0.1221379923462394,"405":0.08494121728721661,"406":-0.1842693318053548,"407":-0.10569418400315168,"408":-0.05479645588098969,"409":0.08106124377209958,"410":0.07505942716717054,"411":-0.08456645179859093,"412":0.14842880277952614,"413":-0.020753696658283922,"414":0.1385487683742491,"415":-0.010552788482622115,"416":-0.13912577068111986,"417":-0.09551199888903368,"418":0.11326443028575055,"419":-0.12975100234202075,"420":-0.09923132529267013,"421":0.17091632009784863,"422":-0.10343338868977399,"423":0.11428677029120374,"424":-0.17885359000514123,"425":0.015318280150725975,"426":0.1414644709496354,"427":-0.12211262484394712,"428":0.16688777138576,"429":-0.04093116192737399,"430":-0.1315504492395016,"431":0.025992543632680422,"432":-0.18365967015373183,"433":0.10570771543968233,"434":-0.1418561006679492,"435":-0.1243130663094643,"436":0.07920488552577461,"437":0.06481123689422832,"438":-0.045348492098023274,"439":0.1934827791703967,"440":0.041050702632981405,"441":-0.12886520971919213,"442":0.08409085133073792,"443":-0.07633151803275774,"444":-0.1506230927107357,"445":-0.17529155829149506,"446":-0.1964664028362503,"447":0.19399194796266855,"448":-0.07545052677620465,"449":-0.0800742937178167,"450":0.11328254413110038,"451":0.06319727956764502,"452":0.06876229234786199,"453":0.041192747609373304,"454":0.03266379451928839,"455":-0.10931686544040671,"456":-0.07000229582428207,"457":-0.17470715768722794,"458":-0.09540576836339507,"459":-0.11616656771732027,"460":0.15915212419404873,"461":0.08640713498728225,"462":0.15334860813859108,"463":0.1954429208471301,"464":0.10076931386227173,"465":0.09644593465845029,"466":0.1070054988613573,"467":-0.12719175063589605,"468":-0.06342232167227067,"469":0.013352334211579962,"470":0.002277932295923489,"471":-0.15949536068353856,"472":0.01752502376271929,"473":-0.06600597729649887,"474":0.0007657999221198232,"475":0.1921119168542221,"476":-0.09319022258122293,"477":0.11229045073367103,"478":0.171396272640494,"479":-0.05593219463066674,"480":0.06367915577022754,"481":0.12310708236136478,"482":0.1276207628286981,"483":-0.05053379512285079,"484":-0.0497940659595953,"485":-0.051195234704827716,"486":-0.14247697771487342,"487":-0.004541562840439792,"488":-0.05087588737367506,"489":-0.15524207105453583,"490":-0.1616181069072203,"491":0.10151516227205871,"492":-0.005565181322127377,"493":0.10506929869291261,"494":-0.13247042975125134,"495":0.08191708609909212,"496":-0.005704617599666139,"497":-0.02141493009289615,"498":0.008531416659175464,"499":0.17331156530186265,"500":-0.017319731109009903,"501":-0.11433111592989034,"502":0.12431990356490555,"503":0.11902098054175862,"504":-0.0783408568996182,"505":-0.1189463539853035,"506":-0.02701600115028772,"507":0.1129592456126797,"508":-0.00044014687110596225,"509":-0.1974321133108718,"510":-0.10224680102674608,"511":0.01863156117989815,"512":-0.024604185248342608,"513":0.18637504737288613,"514":-0.05712449281944136,"515":0.12650182749226987,"516":-0.02674066060813308,"517":0.067997708612994,"518":0.1677083151413696,"519":-0.14025118033918674,"520":-0.12624567660861927,"521":0.14616113233492922,"522":-0.14484352530999617,"523":-0.16793862427477166,"524":0.039307180349706546,"525":0.08607588336224507,"526":0.09365322741469229,"527":0.09994461618902287,"528":0.014149242763009526,"529":-0.044471218335479526,"530":0.03238282741640505,"531":0.023445092513691333,"532":0.14026939221360415,"533":-0.03238212871561229,"534":0.08935754922775495,"535":-0.1354858964610846,"536":-0.08764786151475089,"537":0.06961274553075601,"538":-0.1751007027887646,"539":-0.04802597902988471,"540":-0.15817594216623687,"541":0.0613721153728759,"542":0.006212273521883729,"543":-0.035508306672324505,"544":0.062108924993992974,"545":0.0027402246272655133,"546":0.06349988050999138,"547":-0.11239976493552786,"548":0.0005308689245321593,"549":-0.12608242972765607,"550":0.0843664573893812,"551":-0.13188481888709772,"552":-0.17942625064775858,"553":-0.1668940950975828,"554":0.10958913478680728,"555":0.06942895336545442,"556":0.15879118225688496,"557":-0.044923865277400464,"558":-0.08230853717415632,"559":-0.021464571462380965,"560":-0.18356256945921642,"561":-0.16036460110553966,"562":-0.17375835843328866,"563":0.14058136084297068,"564":-0.13160053665193264,"565":0.08028342080640542,"566":0.14777561805125852,"567":0.1909779230220714,"568":-0.1646588655784444,"569":-0.11942939797408851,"570":0.10423151428311203,"571":-0.08349977565725605,"572":0.19471492293162135,"573":-0.07332657201106421,"574":0.18673303253338092,"575":-0.065880477981555,"576":0.003605183589867082,"577":-0.17503834188856995,"578":0.07692623960856741,"579":0.13991836771574334,"580":-0.05499392270322497,"581":0.18027706016642317,"582":0.10306706890694532,"583":-0.036759003624155684,"584":-0.14502542325524725,"585":-0.026367904495895156,"586":0.09777145295093084,"587":0.04289228084195957,"588":0.16456750277567775,"589":-0.17593115135600126,"590":-0.1788869649286381,"591":-0.07136322100307096,"592":-0.05361996156537299,"593":0.10326693923296461,"594":-0.07769869487693634,"595":0.1556953795882962,"596":-0.19717554647507307,"597":-0.1400966693930387,"598":-0.16116696626822574,"599":-0.13677168413157423,"600":0.004152122113130498,"601":0.030492878267849445,"602":0.10765674959363954,"603":0.12466570924246319,"604":0.06485164358484279,"605":-0.10772480858982068,"606":0.056815564491573184,"607":0.04223582479221004,"608":-0.1295218278602102,"609":-0.20140787445570266,"610":0.16326175069873075,"611":-0.09947881587183224,"612":0.16209035489471374,"613":-0.01562556080324262,"614":-0.19099600148614765,"615":0.06462703924911999,"616":-0.006978663754305328,"617":-0.05766769876092148,"618":-0.07816428555900055,"619":-0.05108350445916118,"620":0.14328958581347953,"621":0.058778765859895186,"622":-0.02342530790801714,"623":0.011563148415343873,"624":-0.013055607220559998,"625":-0.031057379046292695,"626":-0.017362515374176858,"627":0.13184188817740167,"628":0.08560317009899888,"629":0.12281230582089939,"630":-0.07062975278760342,"631":-0.09162765865712141,"632":0.004817614360633265,"633":0.15346940677659401,"634":-0.0636939887158712,"635":0.04302740254277259,"636":-0.18545242118156618,"637":0.04778774978828101,"638":-0.14617737885488324,"639":0.020681247099274297,"640":-0.03509656307833176,"641":-0.012012712628212557,"642":-0.012000281860724977,"643":-0.18477844267181706,"644":0.1733620977491718,"645":0.023004002541746383,"646":0.015478575324690085,"647":-0.08795337749204572,"648":-0.12600319073509705,"649":0.08102076076563505,"650":0.10575369875226935,"651":0.1513958844565424,"652":-0.08410545699939162,"653":-0.07473319551411765,"654":-0.005092264750048836,"655":-0.039592907793743054,"656":-0.09065607537760433,"657":-0.021197760636930376,"658":0.11594341200288402,"659":-0.04880788664073019,"660":0.1705539421096455,"661":-0.18869171077626973,"662":-0.05467179427453183,"663":0.10153536623909411,"664":-0.07587020458597613,"665":-0.11405638763931478,"666":-0.11300618389453691,"667":-0.10784556312900263,"668":0.18203922029012373,"669":-0.09793391319269093,"670":0.019785828220359663,"671":0.12695482981795497,"672":-0.0766406996207657,"673":0.048947992153948225,"674":-0.1206483025717726,"675":-0.18234310559920228,"676":-0.05322001887169128,"677":0.01345437760123223,"678":-0.010367507810676035,"679":-0.17208364293361736,"680":-0.16706756235843268,"681":-0.16014630754040943,"682":-0.17236561158371577,"683":-0.14574685272204344,"684":-0.03975520240865933,"685":0.19525145097965288,"686":0.13659141377812767,"687":0.07568855506333498,"688":0.012352851331001877,"689":-0.03392263583896188,"690":-0.021608599667845632,"691":0.03180893724972103,"692":0.17002090133260297,"693":-0.03910658917962773,"694":0.12140965300432918,"695":0.07237511792288581,"696":-0.08702040277940463,"697":0.1329688592259085,"698":0.021854173894669735,"699":0.1622207743946625,"700":-0.02001323613792856,"701":-0.18930698872368237,"702":-0.1789824482090437,"703":-0.015969438141425374,"704":0.028827412777376084,"705":-0.006967530496978088,"706":0.20640293873985724,"707":-0.11220273243014597,"708":-0.01600828006080518,"709":-0.08716503434327284,"710":-0.12254878450500983,"711":0.14597536130764974,"712":0.06785093241577592,"713":-0.1172085104227075,"714":0.11401970112777295,"715":-0.1868106345711247,"716":-0.022114330013985,"717":-0.004973989202379677,"718":-0.1462462522814569,"719":0.029833582220974757,"720":-0.05851239087361318,"721":-0.02574622938634929,"722":-0.17266328668883746,"723":-0.05403770948495676,"724":0.024250599169219105,"725":0.1450821193949696,"726":0.09940697922774783,"727":-0.12137670226934655,"728":-0.17966676672582046,"729":-0.14822639736195822,"730":-0.17994760563470596,"731":0.08014944280632508,"732":-0.18765466182834692,"733":0.0756891801478866,"734":-0.030011619636071196,"735":0.02157985754164443,"736":0.1899069235249319,"737":-0.1338348209070404,"738":0.19580535766775692,"739":0.01790156387784899,"740":-0.14626110966553663,"741":-0.07283042369764321,"742":0.18221679649443046,"743":0.1697120051036421,"744":0.1323525465388698,"745":-0.05556604010433662,"746":-0.1642702861942675,"747":-0.12262346527751125,"748":-0.022613875868213507,"749":0.0984596739819263,"750":0.048936197386508444,"751":0.1545043097912294,"752":0.09757073691186682,"753":0.1654949311228462,"754":-0.057396830563844876,"755":0.06486841065472229,"756":0.13285674281390358,"757":-0.10145963157913135,"758":-0.1500309377689107,"759":-0.017670144261214403,"760":0.02058550213453393,"761":-0.12037415307200457,"762":-0.16737787964668713,"763":-0.1245566640421305,"764":-0.028242041227348146,"765":-0.023819976669845956,"766":-0.09545775422597495,"767":0.08160681800019613,"768":0.15440409101220195,"769":-0.04556742356244885,"770":0.1313914695743894,"771":0.14862719420507292,"772":0.004898946960805526,"773":-0.040849781627332354,"774":0.00906555108234947,"775":-0.01218812569261702,"776":-0.19562520160560345,"777":-0.0431769521377396,"778":-0.15996227911528188,"779":0.12234963286694933,"780":-0.12764626994725162,"781":0.1567851197917202,"782":0.13652897514718096,"783":0.0027644104600943195,"784":-0.09165485987507618,"785":0.05657178750594108,"786":-0.04004680040055202,"787":0.03900166811269298,"788":-0.07605319295982681,"789":0.168224899523817,"790":-0.022677668458234553,"791":-0.16634919751363478,"792":0.12046633053718594,"793":-0.20329554204011868,"794":0.1747308114176214,"795":-0.10357100126547251,"796":0.0840232493693374,"797":-0.06591195133805934,"798":0.11582099208013844,"799":0.10348387205475246,"800":-0.06192948507938141,"801":-0.17710176289516974,"802":-0.012323742249388024,"803":-0.17790635856332845,"804":0.1066001932153879,"805":0.10067038215202276,"806":-0.14198682398462176,"807":0.10885108760660508,"808":-0.17748979053644914,"809":-0.03390814985486433,"810":-0.1116668195860923,"811":0.11376813619261958,"812":0.002594981483106064,"813":-0.1697128167349456,"814":-0.03329687474058066,"815":0.1314589601531646,"816":0.03158702538313966,"817":-0.07753625477104063,"818":-0.000046293670630229665,"819":0.15567856796902296,"820":-0.02225239165061291,"821":0.16479626727707505,"822":-0.18592448751580049,"823":-0.12389026543802945,"824":0.01960299652299342,"825":0.16818448198882383,"826":-0.019037797009102127,"827":0.19883376556191462,"828":-0.036798648054797635,"829":-0.059907116847431455,"830":-0.07828704959339151,"831":0.18034070646232356,"832":0.17689986698613214,"833":0.0021653452328106193,"834":-0.17561493896844846,"835":0.18445496602604908,"836":-0.040911981544427156,"837":-0.05495765507506483,"838":0.04844366437405024,"839":-0.03304814240160619,"840":-0.17266785230257364,"841":0.05255660258499603,"842":0.06624428762204047,"843":0.13335489412198545,"844":-0.08826642179931979,"845":-0.11165566132673276,"846":0.009915542422316393,"847":-0.10853194173118907,"848":-0.16263640098254942,"849":0.1765086598717398,"850":-0.06302571238263414,"851":-0.023901904773941676,"852":-0.1112866656063874,"853":-0.06336956532607285,"854":-0.05265981312695955,"855":0.16255898765736396,"856":0.046888000811008475,"857":-0.030744198827531787,"858":-0.10923140828373061,"859":-0.04322375105778513,"860":-0.02357053888612201,"861":-0.12741471591949108,"862":0.002611079369555473,"863":-0.17122585855528927,"864":-0.059502719127607344,"865":-0.06350380771215085,"866":-0.13016490748190446,"867":0.09899849217598622,"868":0.06750273096146936,"869":0.06753306454865417,"870":-0.014441130814680505,"871":-0.20238279149773902,"872":-0.11380675779189535,"873":0.14354460327458873,"874":0.14583165794663602,"875":0.08545482282818367,"876":-0.19878624152380298,"877":-0.025274168216197265,"878":-0.13380643527230762,"879":-0.02543151082237228,"880":0.12576671108342768,"881":0.1319112119648541,"882":0.18784719316200177,"883":-0.03870905443608801,"884":0.1721181699149078,"885":0.11329436471227658,"886":-0.09644137808941196,"887":0.05257260072757186,"888":0.1725692750781477,"889":-0.038303722084316205,"890":-0.184312781329859,"891":-0.051226429045905034,"892":0.03082499478482036,"893":-0.0650960349679253,"894":-0.1496186272147179,"895":0.14828695169707015,"896":0.18640999987743323,"897":0.09551729773052765,"898":0.17647722118068837,"899":-0.03524144813123114,"900":0.17722730200835426,"901":0.014569366847349902,"902":0.008164171996848543,"903":-0.12223873153123598,"904":0.01930184718133633,"905":0.048586874751551774,"906":-0.1327167540863503,"907":-0.1547305696254661,"908":0.1690500518926546,"909":-0.07305791101932904,"910":0.1184377392815138,"911":-0.19702401832634764,"912":0.03328349825091582,"913":-0.09468446624718868,"914":-0.17600831631085215,"915":0.011885961391465198,"916":-0.0330708830843243,"917":-0.07110900034675488,"918":-0.1325058254381438,"919":-0.10446371001041779,"920":0.11178063927064952,"921":-0.045138540521662864,"922":0.05087843547806771,"923":0.023654013911328067,"924":0.05558472930138531,"925":-0.17652543259920705,"926":0.19109983024000624,"927":0.04289703542225149,"928":0.05171330511634702,"929":-0.20757901741025683,"930":0.006973365577243461,"931":-0.1685698249677889,"932":0.16440450805879084,"933":0.022348441546157897,"934":0.004143971584544119,"935":-0.0939127881850306,"936":0.1699455558449128,"937":0.19113834910771063,"938":0.03536232540161939,"939":-0.10726528803756444,"940":0.059941310832806974,"941":0.06493749082827469,"942":-0.14613556165685349,"943":-0.08202607403006751,"944":-0.10706572454850921,"945":-0.06275564963432893,"946":-0.17718360503055136,"947":0.05918854137140662,"948":-0.18772846462043846,"949":-0.05296427730805827,"950":0.06606025797304714,"951":0.1594600849044908,"952":0.13827200434891546,"953":0.03580625036187688,"954":-0.038632190249997096,"955":0.05643321625153746,"956":0.06895591864705251,"957":-0.09804212548530483,"958":0.10325041348812825,"959":0.0760701184324022,"960":-0.005902600304597277,"961":-0.10764570535368836,"962":-0.061813234481567364,"963":-0.11634753622750295,"964":0.010356188586122358,"965":0.08577988925561855,"966":-0.05574618202024366,"967":-0.0171271115140431,"968":0.11325175655319145,"969":0.027824284580683367,"970":0.018259073594599426,"971":-0.08428017692518026,"972":0.12490619888999528,"973":0.008368112822511212,"974":0.1277252344340682,"975":0.16785632744358095,"976":-0.15409601454619964,"977":0.054980588319152514,"978":0.15257704910284334,"979":0.10508257619634714,"980":-0.012766454629675262,"981":0.18401167544542338,"982":0.12902993568191548,"983":0.18501851067394295,"984":0.18937365552452043,"985":0.07821921576716656,"986":0.04548256865710829,"987":0.10205603735048291,"988":-0.09678748461586714,"989":-0.0516783560759949,"990":-0.13096282988311087,"991":0.02208744980591114,"992":0.02538066850722186,"993":-0.002908018846836514,"994":0.04690063854155915,"995":-0.15738082511172824,"996":0.09580645880418712,"997":0.16612373018857235,"998":0.18563278379992684,"999":-0.08760667473052032,"1000":-0.07525353580123394,"1001":0.09259136204571645,"1002":0.03866251703650277,"1003":0.10015642169842603,"1004":0.08013664005432218,"1005":-0.0026748013544663305,"1006":0.09102756818586916,"1007":0.021685373556246973,"1008":-0.07115437379577186,"1009":-0.016151211966031902,"1010":0.05840024904207925,"1011":-0.07579108156614339,"1012":-0.15403297111881026,"1013":-0.02931616519338763,"1014":0.030130641614355965,"1015":-0.09020910389045395,"1016":-0.09197412920572597,"1017":0.0706847368219699,"1018":0.18164301280867337,"1019":-0.10645286382287696,"1020":-0.006462572985713949,"1021":-0.18423841088907,"1022":0.12787178943542205,"1023":0.10504922928657723,"1024":-0.10438198246783732,"1025":-0.05621972263965453,"1026":0.0261119261177825,"1027":-0.08039840447377558,"1028":0.05351089214503617,"1029":-0.08366699769255466,"1030":0.034256374359377756,"1031":-0.18291983426292419,"1032":-0.05610657420395418,"1033":-0.1220007519891452,"1034":-0.1647368398268759,"1035":0.14508216686691416,"1036":-0.194586107048188,"1037":-0.1615436436265276,"1038":0.164250563935586,"1039":0.18184689918096755,"1040":0.09962890255023497,"1041":-0.16221722109721934,"1042":0.1290582751407889,"1043":-0.054553799820306274,"1044":0.1596610428047799,"1045":0.014668832110487499,"1046":-0.018372207205071177,"1047":0.10693424488286084,"1048":0.15288504637528397,"1049":0.05318725283771904,"1050":-0.17191012236178363,"1051":0.1988519469615505,"1052":0.09299523211096329,"1053":0.09717730246373975,"1054":0.050079925111228364,"1055":-0.04530937214255132,"1056":-0.08622917412520048,"1057":0.17412532915680048,"1058":-0.008017509283263547,"1059":0.1704256094363218,"1060":0.061462391943583876,"1061":0.0022992212270398823,"1062":-0.05392327428377724,"1063":0.019189514302262997,"1064":-0.08312223604089293,"1065":0.13793603850349956,"1066":-0.19235109106010712,"1067":0.06699989013259165,"1068":-0.13623265448390887,"1069":-0.17878556321500255,"1070":0.0539580029870597,"1071":0.04972247274604483,"1072":-0.17925714890742317,"1073":-0.09485727647797888,"1074":-0.1824501595011151,"1075":0.09391078301120073,"1076":-0.014452078268072542,"1077":-0.16520166285713464,"1078":-0.028755073355840384,"1079":-0.10428751177637248,"1080":0.0384583566100206,"1081":0.14016429256107965,"1082":-0.158096402903405,"1083":-0.17311380251125283,"1084":-0.11495445679150663,"1085":0.18309205101505396,"1086":-0.15156566155355589,"1087":0.03514312827770713,"1088":-0.0427460726094352,"1089":0.003803202176470208,"1090":0.12416450283562497,"1091":0.17112600100559003,"1092":-0.05773140993204729,"1093":0.17456723464262386,"1094":-0.15106508830082455,"1095":-0.0627213345902962,"1096":0.04745835804305448,"1097":0.15056963394029774,"1098":-0.07102223228959707,"1099":0.16680828827243507,"1100":-0.12951079679102342,"1101":-0.07276466436108961,"1102":-0.13437713905549026,"1103":-0.10308891893657944,"1104":-0.09027348630699923,"1105":-0.004302143180581843,"1106":0.12507426961527932,"1107":0.006007908994724513,"1108":-0.12456613683493774,"1109":0.10235133760518116,"1110":0.06911389298621984,"1111":0.0854507383037575,"1112":0.18808075187097625,"1113":-0.07931142510596997,"1114":0.16125856838877828,"1115":-0.08991909664865788,"1116":-0.10775281495995587,"1117":-0.10744169802906631,"1118":0.012601785892039651,"1119":-0.15960379845898334,"1120":-0.05612660037725373,"1121":0.17403514621350577,"1122":-0.18914716562195874,"1123":-0.07266269620027134,"1124":-0.10778119185529343,"1125":0.14721150076254202,"1126":0.07811951718671252,"1127":0.1511447042727898,"1128":0.1430377333221843,"1129":0.04815127255911767,"1130":-0.1344630166351156,"1131":-0.11383672763111881,"1132":0.05149430786855223,"1133":0.139925255089827,"1134":-0.1085460184666451,"1135":0.1028414086855234,"1136":-0.17435661850273118,"1137":-0.19122545522426135,"1138":-0.013553641029304514,"1139":-0.1854049852490624,"1140":-0.033564517574393826,"1141":-0.010675185919691478,"1142":0.18683683344238897,"1143":-0.17604622464254874,"1144":-0.063792362302384,"1145":-0.05373596169205751,"1146":-0.01317977029572242,"1147":-0.1616362238006967,"1148":0.14964373570598327,"1149":0.05378424331087509,"1150":-0.021241175143200234,"1151":0.03860471254404837,"1152":0.003614996046676442,"1153":-0.07723830908815973,"1154":-0.03299741961953516,"1155":0.005122406253716885,"1156":-0.16393621792007088,"1157":0.02038743945179632,"1158":-0.07359868932375006,"1159":-0.04409631077790008,"1160":-0.008443225647203692,"1161":0.04113291432767035,"1162":-0.04404845805293654,"1163":0.05370203034499902,"1164":0.1241672073751369,"1165":0.1325292734662835,"1166":0.0018696395791007463,"1167":0.1970106596243623,"1168":-0.07734828181023634,"1169":-0.16638641671193527,"1170":-0.08911184072303617,"1171":0.08145197443953339,"1172":-0.14149162109356828,"1173":0.09479331798036342,"1174":0.017819431708315247,"1175":0.047416825318519144}},"1":{"bias":-0.1089110851586638,"weights":{"0":0.11874911261025972,"1":0.047549517307664234,"2":-0.15102262681516457,"3":-0.10934132977854373,"4":-0.034602323404929906,"5":0.11100500353354649,"6":0.07558137597970935,"7":0.06834387196823775,"8":0.08770762124196381,"9":0.00825600349846428,"10":-0.19658606975752807,"11":0.042763304086294834,"12":0.012703859549477912,"13":-0.09117317328555445,"14":0.22901275022362563,"15":-0.08590090645865367,"16":-0.146897930454539,"17":0.17090787774170116,"18":0.11385224644675845,"19":0.07946880102518515,"20":0.08424831451632757,"21":-0.006390116766097898,"22":0.15778975610810733,"23":-0.13961786836844656,"24":-0.019942466145399077,"25":0.008410820983917707,"26":0.17383926485407974,"27":0.1569316505690969,"28":-0.11244468151636237,"29":0.0825680947070474,"30":0.1458911073874508,"31":0.041087342255153037,"32":0.0034421560039875755,"33":0.06305944585303375,"34":0.10625817243430109,"35":0.1304618682100137,"36":0.06496391064258168,"37":-0.08064259384531845,"38":-0.1817068161532816,"39":0.057471715661382365,"40":0.0169966824102478,"41":-0.13755679561132708,"42":-0.10127098976697003,"43":-0.10835865383286604,"44":0.1658359492276697,"45":-0.06849767767148414,"46":0.006453726923024214,"47":0.08544311781556659,"48":-0.11174352294485008,"49":-0.0463062575722298,"50":-0.13125503354920354,"51":0.08292901426461874,"52":-0.017652918140073318,"53":0.0741075970119024,"54":-0.1708089573586674,"55":0.16209466904041642,"56":0.09469324501725564,"57":0.28168525441387826,"58":-0.0931083425323077,"59":0.1187817334843205,"60":0.031824421254444984,"61":-0.2316944184758111,"62":-0.08512008380606034,"63":0.17997480767902732,"64":-0.193397070353133,"65":0.17042886148381928,"66":-0.14317276814701413,"67":-0.07440414236221392,"68":-0.11989932873577071,"69":-0.009433829816904167,"70":0.0011426703527502467,"71":0.17629101903010694,"72":0.10450290147444406,"73":-0.2428416852534493,"74":-0.19311168933617498,"75":0.24654150175015455,"76":-0.15686232330352412,"77":-0.22845124290737617,"78":0.11952601907391514,"79":0.13826714003063204,"80":-0.042371025245871954,"81":-0.0035567492563323556,"82":0.08533790686210899,"83":0.028946379588733737,"84":0.05428407006981581,"85":0.01777117639212552,"86":0.007241080476019184,"87":0.157541761415511,"88":0.11959097790023848,"89":0.06788862897196679,"90":-0.12608076590539535,"91":0.05634615967765979,"92":0.04484524037268337,"93":-0.019668464571558884,"94":-0.06666749153799015,"95":-0.07847101678923235,"96":-0.09085074201070059,"97":-0.05224509564720282,"98":0.1247832545011099,"99":0.08082091920937545,"100":-0.06385972885612513,"101":-0.07913166127586815,"102":-0.028829394578027818,"103":0.14223161582231666,"104":-0.08195006183363089,"105":0.1549865957105753,"106":0.10868443882616048,"107":-0.04780645523092193,"108":0.09489537344182498,"109":0.08505133441480713,"110":0.12424282255562885,"111":-0.03707611519289655,"112":0.13223346098020894,"113":-0.05814097000636959,"114":0.13519300552720326,"115":-0.11599541640617,"116":-0.11373527234124435,"117":0.1638208457163354,"118":0.07799406767726738,"119":-0.14954441227167156,"120":-0.15334801994441535,"121":-0.053050973111225544,"122":0.009120581376486627,"123":0.017324800235484914,"124":-0.11970569821652988,"125":-0.18440624293787167,"126":-0.2107811372369376,"127":-0.09964674181419174,"128":0.13080379739973516,"129":0.14393277333018617,"130":0.1270901950436043,"131":-0.014675186423427291,"132":0.16984459766555313,"133":0.06985588783962624,"134":-0.14374055761503504,"135":-0.01515261241741719,"136":0.05917704167024723,"137":-0.14028701221374645,"138":-0.16957054169511826,"139":0.007577670798451933,"140":-0.17402996271947857,"141":0.1374594206097722,"142":0.06537677539210128,"143":0.19332368272497363,"144":-0.027139273224888266,"145":-0.0595897376950028,"146":-0.19551666773366633,"147":-0.04342500014115751,"148":-0.22714398655682783,"149":0.002863638015140853,"150":0.00887802352225494,"151":-0.022564231844347016,"152":-0.1338501144958864,"153":-0.08182586218860192,"154":0.14392757310891224,"155":-0.08595113481513245,"156":-0.07691602788167361,"157":-0.15099366418397767,"158":-0.1476681453946217,"159":-0.08807896384973941,"160":-0.07627201352431265,"161":0.06946153076968303,"162":0.013740168234397013,"163":-0.0629937576123402,"164":0.054515697864395224,"165":-0.03661631888523473,"166":-0.13270727751472922,"167":0.07980308473865258,"168":0.039416262359527034,"169":-0.10473568046273098,"170":-0.11391027541347695,"171":0.14999736432782793,"172":0.03228082379508681,"173":-0.09271828918538788,"174":0.06522828947120379,"175":0.03399963917618412,"176":-0.07363286416132521,"177":-0.14308441036466638,"178":-0.11334861805015789,"179":0.022964704228914473,"180":-0.04872370962860921,"181":-0.059106771963241204,"182":-0.10051249552999837,"183":-0.04448363239541914,"184":-0.14839473948877827,"185":0.19531543694633516,"186":0.047492020627292963,"187":-0.13939909970640174,"188":-0.05385318256392405,"189":0.0851017047569098,"190":-0.13626661233951712,"191":0.1682431600144967,"192":-0.22060008704189502,"193":-0.23443002787572398,"194":0.060020477517778545,"195":-0.15698324118442228,"196":0.18232783136551942,"197":0.13951647459647526,"198":0.12195597015227327,"199":0.04845072368963444,"200":0.13783747494277843,"201":0.13657460771391305,"202":0.13404025613193854,"203":0.023273644490751144,"204":-0.1268705684639447,"205":0.010027169792973096,"206":-0.045304330741699074,"207":0.12200924880537284,"208":0.03428238468663373,"209":0.016906191111350177,"210":-0.22558303470227642,"211":-0.06771073590166828,"212":-0.019933358275472865,"213":0.01593733913203507,"214":0.14781265928313836,"215":-0.10589041353657805,"216":-0.2669951599214582,"217":-0.13074893316256478,"218":0.11521813601486697,"219":0.10105410455367633,"220":-0.11739661320207898,"221":-0.040757177451098,"222":0.006059844380757094,"223":0.07480757066708614,"224":-0.15590033459052358,"225":-0.007747461148790973,"226":-0.04059519237073696,"227":-0.1886589172543978,"228":-0.12975756012914882,"229":-0.2025046303030095,"230":-0.15814810130694112,"231":0.1517046407023375,"232":0.04450069796696789,"233":-0.21919263571322703,"234":-0.10910247261816733,"235":0.1589729080585155,"236":-0.09012162731850269,"237":-0.027865178824835756,"238":0.09179514426152799,"239":0.10565780823525966,"240":-0.1974864487886509,"241":0.027170821011581598,"242":0.09363170508361228,"243":-0.10530259232947772,"244":0.048504087016597607,"245":-0.1503988165729191,"246":-0.13868391313607636,"247":0.06149619113444873,"248":0.09407219925494456,"249":0.11686870879653605,"250":-0.13247165275353967,"251":0.14238402019327184,"252":-0.13382317188829476,"253":-0.11631927530705044,"254":0.20296405202288664,"255":0.0034208535058292476,"256":0.019851775803659998,"257":0.0679191639561742,"258":-0.07583598783822747,"259":-0.11583823545972342,"260":0.08395318878095698,"261":-0.13369570583614268,"262":-0.21164522491838325,"263":-0.11938423247184879,"264":-0.04580802455444905,"265":0.11242808803285298,"266":-0.05298070175874556,"267":0.05297039355041672,"268":0.19005697302452745,"269":0.11812595509403842,"270":-0.17661120390996235,"271":0.19975515854487136,"272":0.09508418797088447,"273":-0.14986423567321724,"274":-0.13540385706257838,"275":-0.18796669625482448,"276":-0.11463682491252139,"277":-0.00030614154012476274,"278":-0.2068879366470717,"279":-0.03909804779041612,"280":-0.026653527763970487,"281":0.015030960953613762,"282":0.005273350509676486,"283":-0.0512134371480634,"284":-0.1133058970609469,"285":-0.08184654769565991,"286":0.1556200586502538,"287":-0.031166604411259555,"288":0.03115668169427739,"289":0.08010975059137448,"290":0.03791794795570416,"291":-0.08986444532173202,"292":-0.08866238354565409,"293":0.04027861073393891,"294":-0.25250930724023946,"295":0.16560867688773012,"296":0.026515405337039912,"297":0.19681221213368555,"298":-0.0830043906304265,"299":0.05851847350907188,"300":0.2173671641334275,"301":-0.010626797377149956,"302":0.029916275793896736,"303":0.015599505126731628,"304":-0.18185722705813814,"305":0.06120974807540812,"306":0.0447631092656827,"307":0.12318800790811861,"308":0.04708087928298494,"309":0.23145655651955738,"310":-0.0616864276531691,"311":-0.18445642454613648,"312":-0.20178967931606592,"313":-0.09881876218207805,"314":0.11070690362397013,"315":-0.10069470629874458,"316":0.025688864847655455,"317":-0.014614952009728458,"318":0.132621639715074,"319":0.05400727965817526,"320":0.08442951204714014,"321":-0.034909281988475316,"322":0.06542687805517292,"323":0.15615122958060224,"324":-0.17385134268102703,"325":-0.0776450724920124,"326":-0.12479775330546744,"327":-0.13270643257475276,"328":0.055883470948956356,"329":0.07670844825699433,"330":-0.045972263012973726,"331":-0.0827051187233321,"332":-0.08118999311671646,"333":-0.19347197506177957,"334":0.05352890959169566,"335":-0.19242594276935487,"336":-0.2494373971332116,"337":0.16288143438091507,"338":0.19390392389401037,"339":-0.05720124356220043,"340":-0.16555833271600445,"341":0.04514931574573339,"342":0.162032742786951,"343":-0.0713708174303532,"344":0.05199999665033899,"345":-0.10003788596658691,"346":-0.01370484193694379,"347":0.13604173215565102,"348":-0.1978841283953326,"349":-0.06602139848299009,"350":-0.15984912086534825,"351":0.16696389058572916,"352":-0.08286829146558784,"353":0.06974975495696564,"354":-0.11621480563849437,"355":-0.1099374615585795,"356":0.18160150023087684,"357":-0.07135540859432991,"358":-0.11461952791676076,"359":0.1536830046422381,"360":0.03151742818770081,"361":0.04625259758968395,"362":0.15211783979065852,"363":-0.08013621074343974,"364":-0.1378722030512673,"365":-0.025943425211726955,"366":0.08706201299671333,"367":-0.13064899261222337,"368":0.05727767815240477,"369":0.11530674559930398,"370":-0.1858950293109525,"371":-0.22113528311973216,"372":0.20722205996135037,"373":-0.06321906078145657,"374":0.18210250928242896,"375":-0.1374774821715454,"376":0.18445597913314427,"377":-0.054610612592018305,"378":-0.09645586051869916,"379":0.024562710035455692,"380":-0.0900023115530586,"381":0.06182617171497082,"382":0.1877157584360397,"383":-0.1937135166148846,"384":-0.2247528258282728,"385":-0.17994022046500072,"386":-0.18219235251470375,"387":0.012293016663821026,"388":-0.20123088803211087,"389":-0.09453974971162658,"390":-0.09253566155522278,"391":0.19475928287627534,"392":0.20785707112212132,"393":0.19008139909533156,"394":-0.10679574612401245,"395":-0.15282263071479507,"396":-0.06738709116600872,"397":0.0747922607930041,"398":-0.180393032788553,"399":0.048651356053733226,"400":0.03334520518133387,"401":0.02392428331577111,"402":0.006360275015290486,"403":0.05023710962050573,"404":0.09349781110905266,"405":-0.10088069675680372,"406":0.12378927770822261,"407":-0.07063965612662779,"408":-0.07385120521322511,"409":0.07831868885716396,"410":-0.1593667484870737,"411":0.11175026798296353,"412":-0.2711414538773686,"413":-0.2408568134486887,"414":0.021519852991532508,"415":0.11632241978931865,"416":-0.14295288976235843,"417":0.027060631447595962,"418":-0.0331469844157923,"419":-0.18352768365180908,"420":-0.16731039179154306,"421":0.1727008176985699,"422":0.11984514351111868,"423":-0.19845843892016313,"424":0.22430461031430837,"425":0.07417917674714265,"426":-0.18052617029689597,"427":-0.16367439783620658,"428":-0.07887944417061428,"429":-0.09157087386182196,"430":0.1669520083700738,"431":0.059700029070645866,"432":-0.047717104466077444,"433":0.05738423569137254,"434":0.1011054856953136,"435":0.11440752597781358,"436":0.10635985917674833,"437":0.11679567398379004,"438":0.21175642519321072,"439":-0.07727604780944568,"440":-0.012775851728187902,"441":0.15365818655421817,"442":-0.11531573380560314,"443":0.11008306144364229,"444":-0.013923422690450988,"445":-0.18157716411937067,"446":-0.11229389091018491,"447":0.018187532258856484,"448":0.050928543453189284,"449":0.19279630397457123,"450":-0.04834942018198338,"451":0.025022559635552718,"452":-0.09882618168470364,"453":0.06263577200440518,"454":-0.1324149203645651,"455":-0.07817734199261954,"456":-0.0396715513964125,"457":-0.024530806448560108,"458":-0.11621859256417591,"459":0.09896367252620707,"460":-0.15214384160700248,"461":0.09850853257777019,"462":-0.20514749161848517,"463":-0.12537964824041406,"464":-0.054704917696234166,"465":0.11292504521385995,"466":0.15073496789333984,"467":-0.04893236667999923,"468":-0.1391781186206444,"469":0.2076336398257062,"470":0.005382826483158272,"471":-0.183810468186057,"472":0.2288014162500647,"473":0.18093959649167068,"474":0.062409113074243766,"475":-0.17152908042997891,"476":-0.18432717700549264,"477":0.15464997942383618,"478":-0.181812700546427,"479":-0.0835326841385983,"480":0.023299733942639154,"481":-0.05601841763238026,"482":0.030040089157097286,"483":-0.04425998205229064,"484":-0.12519625037578777,"485":-0.09724225645218428,"486":-0.05695799991856303,"487":-0.11935069238916314,"488":-0.030819499697463032,"489":-0.17201444289170106,"490":0.068853670661116,"491":-0.08105891676538336,"492":0.0178130640583883,"493":0.051217188455545674,"494":0.08029914557002744,"495":-0.07705575552043134,"496":0.05926648914454156,"497":0.20086068037506713,"498":0.06507049466421137,"499":-0.04585963652060306,"500":0.1972062710665798,"501":-0.1841578463790735,"502":-0.08171568933130996,"503":-0.08753099101421963,"504":-0.20701098174189314,"505":0.12289637373385327,"506":0.17767464202402522,"507":0.10745770633659592,"508":-0.014132928721963391,"509":-0.02056856953426654,"510":0.09459946006913483,"511":0.16458570946571383,"512":0.011193478667280796,"513":-0.10210831108007848,"514":0.13660643650116486,"515":-0.11159821256931564,"516":0.08025048181969634,"517":0.10297562923182574,"518":-0.08458910443960173,"519":-0.1448302476195756,"520":-0.14922516475280354,"521":0.20928664735526972,"522":0.19660665553335682,"523":0.13264479338360427,"524":-0.15696270212757282,"525":0.18504787636720224,"526":-0.12271382880342896,"527":-0.023088825223344243,"528":-0.13208035147379926,"529":0.07716093761523227,"530":0.20309533211097944,"531":0.14205906424782422,"532":-0.16453664085840275,"533":-0.22112226615278469,"534":0.09516421636691812,"535":0.055413888831055684,"536":-0.1607888030712898,"537":-0.10422390170167277,"538":0.08962516949210463,"539":-0.12391326342770814,"540":0.012132643476649649,"541":-0.1890965987308266,"542":0.10210757463989012,"543":0.18277076527904998,"544":-0.057793966142596395,"545":0.03737697144787733,"546":-0.04157076823888969,"547":-0.10577081288811009,"548":0.14617213752732963,"549":-0.07999015134939226,"550":0.037160430511434896,"551":-0.11144458415321795,"552":0.09152688992230941,"553":-0.010266461451866646,"554":-0.05799904760578862,"555":-0.04930863559759203,"556":0.046054622596381184,"557":-0.19025093669439827,"558":0.05833578206689583,"559":0.18351614165724814,"560":-0.1303843706249991,"561":0.0933190275518013,"562":-0.10694487523626381,"563":0.046680578374372464,"564":0.021782148215015753,"565":0.09004188460307885,"566":-0.1402450444710633,"567":-0.0540341017439519,"568":0.06558816087947153,"569":0.015007442726176597,"570":-0.07371028945923695,"571":-0.048329151772157374,"572":-0.0637011857701719,"573":0.143724081653821,"574":-0.20891583049508308,"575":-0.10439177519155267,"576":-0.019105708619161374,"577":-0.17254317677447734,"578":0.01756693113678927,"579":0.12675597398736826,"580":-0.08356211527631947,"581":-0.17571464606954368,"582":0.16223850754512667,"583":0.09753835682930434,"584":0.180426441012275,"585":0.16928483787924006,"586":-0.05689205027689333,"587":-0.08191659097758548,"588":0.12917967196107102,"589":-0.021312361803528086,"590":0.10886713977614333,"591":-0.16034865869679688,"592":-0.09247748007395165,"593":-0.09189827345401505,"594":0.06636273544929697,"595":-0.09414519280084971,"596":-0.17624606865942907,"597":-0.2457992310476853,"598":0.0770996754693734,"599":-0.11599980685792884,"600":0.07214142466157858,"601":0.12227351669917223,"602":0.08901522355605919,"603":-0.18646614607881654,"604":-0.0539923546667129,"605":0.10013102679441437,"606":-0.021911583442277525,"607":0.07056018536045787,"608":0.19291248437165967,"609":-0.025514686564970343,"610":0.12354932621637543,"611":-0.09022519372767053,"612":-0.1865688074310965,"613":-0.0608159555564954,"614":-0.19296753365370306,"615":-0.03209597387826085,"616":-0.1351946142160123,"617":-0.19262477854721202,"618":0.0815967691479938,"619":-0.09488592835725532,"620":0.0399457228077811,"621":0.14960736908255545,"622":0.026126565918806577,"623":0.1544164724793301,"624":0.1615897899176169,"625":0.025238613488602835,"626":0.13077363278010987,"627":0.08928770932226834,"628":-0.04099130806827187,"629":-0.018490941829510044,"630":-0.22089947308398558,"631":-0.13156894991077722,"632":0.0018294081093936036,"633":0.0009289582013634034,"634":-0.1142635750254569,"635":0.07679988250857767,"636":0.18019060749396423,"637":-0.11295949469301031,"638":0.12512188095319024,"639":0.09989276288701748,"640":0.048398115874126305,"641":0.092798569989026,"642":0.0484297329629931,"643":-0.1544905512426568,"644":0.17735312318154914,"645":-0.0011462130985758693,"646":-0.04914901403166967,"647":0.027795036101357126,"648":-0.12288677326561467,"649":-0.18009403610710126,"650":0.15812741870107466,"651":0.011284574756893054,"652":-0.019679654181887253,"653":0.19778840929424799,"654":-0.18359040068549745,"655":-0.011143003207936902,"656":0.0057705144676899805,"657":0.1466839864961882,"658":0.14581344310609093,"659":0.04378189204782166,"660":-0.21252990313503434,"661":0.1407928775637601,"662":-0.027100016893151575,"663":0.05162846676144409,"664":-0.06551880987750215,"665":0.17905437861040005,"666":-0.0471448281447136,"667":-0.04574829470015658,"668":0.16127654223458499,"669":-0.13594943950122848,"670":-0.1820428197163869,"671":0.03716330828121434,"672":-0.22637784186172408,"673":0.12366662020879383,"674":-0.16070174298045076,"675":0.02702808882051384,"676":0.1320512549721248,"677":0.10704051098631703,"678":0.1627805152616408,"679":0.0678751330276987,"680":0.1475063189282486,"681":-0.023373678123493488,"682":0.2027850156799601,"683":-0.08438576850696962,"684":0.19235044383939007,"685":-0.19021053117328623,"686":-0.17565815773896012,"687":-0.24018299991075556,"688":0.005102502292734144,"689":0.16081688393868093,"690":-0.009227437462620496,"691":-0.05069794461330896,"692":-0.028088852011139913,"693":-0.01597072329733194,"694":0.20960273480472597,"695":-0.11010721341802232,"696":-0.03866370522563383,"697":0.10016234105037587,"698":0.10099484084062815,"699":0.0799168088814704,"700":0.16754904019789027,"701":-0.058882381011816975,"702":0.04226337040300049,"703":-0.1868494958353658,"704":0.1954188193160124,"705":0.12819154702396748,"706":-0.16007123012100644,"707":-0.2499111150360514,"708":-0.05655668679425315,"709":0.07510518705008512,"710":-0.03049085822873125,"711":-0.06478666482020622,"712":0.15310371274851112,"713":0.1393562531442661,"714":0.11290701169153204,"715":-0.1353954886721063,"716":-0.2108768414419401,"717":0.19396597297356857,"718":-0.0509330652768167,"719":-0.04529366352109692,"720":-0.07193337430887432,"721":-0.028189089263536186,"722":0.18716165982058283,"723":-0.13791093862423243,"724":0.12341955083458239,"725":0.004613319116790012,"726":0.17873420248580799,"727":0.015128184607551028,"728":0.1598590534438939,"729":0.17331956921582736,"730":-0.059490909783851506,"731":-0.03486107891523575,"732":-0.13247888609465827,"733":0.024097087249057732,"734":0.01692059181956732,"735":-0.0979215210988014,"736":-0.06746581305552429,"737":0.11546305340761905,"738":0.09476170987311368,"739":-0.044648179481129716,"740":0.08943614062721679,"741":-0.02576490182042264,"742":0.01739597596190072,"743":-0.09296404357040502,"744":-0.05941486407714006,"745":0.03999839232650176,"746":0.14726882099177777,"747":0.1802673212109782,"748":0.041395961361518296,"749":0.12702481651131167,"750":0.1659353639099159,"751":-0.1906454695424133,"752":0.1845838330086338,"753":-0.03408908987168643,"754":-0.24455311762269968,"755":-0.04515383497626399,"756":0.10371538811190303,"757":0.02635937167500091,"758":0.05152734857157652,"759":0.127771970542584,"760":-0.22986212765681796,"761":-0.15036554599918112,"762":0.1055776478277609,"763":0.001045044220032838,"764":0.02240896615669403,"765":0.04794825826691436,"766":0.08355442094766746,"767":-0.15135003760091637,"768":0.0289723584550485,"769":-0.013734816481221043,"770":-0.07104760742380671,"771":0.08804857497471391,"772":-0.03607139128583657,"773":0.062305104547211485,"774":-0.16745733362090254,"775":0.035624894889561325,"776":0.176231207533792,"777":0.1951744623450931,"778":-0.14042936948789336,"779":-0.03279163958561494,"780":0.15421063939091725,"781":-0.20274310541549506,"782":0.02989206753274766,"783":0.13548084555965717,"784":0.1336466029764061,"785":-0.15508010979471065,"786":-0.0843968819698554,"787":-0.19832671830281287,"788":0.16221339996767348,"789":0.11864891758492918,"790":-0.006986011585832122,"791":-0.22878029513129516,"792":0.035651371674386874,"793":-0.07941885396950822,"794":-0.06408690814147693,"795":0.054248021877470486,"796":-0.20102363446002988,"797":0.16035885422540358,"798":0.11614035978772001,"799":-0.053564573520677804,"800":-0.10823842362317126,"801":0.07899571073991601,"802":0.023158526246118263,"803":0.16308987115146975,"804":-0.032335721416587616,"805":-0.13514954181627553,"806":0.04249922175571849,"807":0.08154054932335153,"808":-0.03534737015230822,"809":-0.20209421830381702,"810":-0.05774243641281636,"811":0.03151508634840341,"812":-0.04240817927900239,"813":0.18159357980055288,"814":-0.09780177661549581,"815":0.08514113183250141,"816":0.05091383865728942,"817":0.12168887485801501,"818":-0.035623398164609923,"819":0.002638242751490443,"820":-0.03152173280586755,"821":-0.040777612141514354,"822":0.14514117255609035,"823":0.16178984271088556,"824":-0.021142575651934368,"825":-0.15355584122386737,"826":-0.24825254453940543,"827":-0.04069105248208654,"828":-0.15343405229803472,"829":0.007112112335447381,"830":0.18940841670774042,"831":0.032973982051102795,"832":-0.07801132907578424,"833":0.15162532055171962,"834":0.011583399661942955,"835":0.0020870992283100755,"836":0.20492438214939082,"837":0.042773795495114425,"838":-0.12249279734755328,"839":0.10270105976680677,"840":-0.16103176049100065,"841":0.11696464519511865,"842":-0.05869636491338476,"843":0.15083323775257515,"844":-0.04008757480350748,"845":0.11975744505658245,"846":0.12101986960003318,"847":-0.10823772633330496,"848":0.07413108400360885,"849":0.1632678033928211,"850":-0.10507468598434005,"851":0.2447983555882721,"852":0.19379153010370598,"853":-0.11183833052997692,"854":0.12752568468961437,"855":-0.005618184696041136,"856":-0.1165670285328068,"857":-0.13513786237124786,"858":-0.08636756480904888,"859":-0.22851199436188968,"860":0.058202856037463495,"861":0.18282016015433303,"862":-0.06429498396202304,"863":0.0275395390076108,"864":-0.048777797065317485,"865":-0.2381965359946509,"866":-0.2267481536823494,"867":-0.12844656169384075,"868":0.19552078441081763,"869":0.2257334195804118,"870":-0.12921754681260858,"871":-0.003370766405664288,"872":-0.09185675959762646,"873":0.09711359225943453,"874":0.08478061543176582,"875":-0.0753946103207231,"876":0.1139938308041336,"877":-0.06589604384944235,"878":0.01103642303790604,"879":-0.14212292683605643,"880":0.19875405324716064,"881":0.1187948601547748,"882":-0.09689218472386148,"883":-0.10750780519162574,"884":0.027664315081091698,"885":-0.0036592310726849347,"886":-0.060702520942849315,"887":0.033600016029326225,"888":-0.16803472680210907,"889":0.11805724789014463,"890":-0.00913398724433258,"891":0.06384647250028141,"892":0.14203762739086856,"893":-0.13560111013441095,"894":-0.18139527980978157,"895":0.14779213973379549,"896":0.12809621461967957,"897":-0.09329610097272638,"898":-0.034142754967047204,"899":-0.20123734186461545,"900":0.21612533960270192,"901":0.032975726558645245,"902":-0.026926896549723807,"903":0.14353147859251758,"904":-0.22580453695114058,"905":-0.1259005949660658,"906":-0.05179008723320366,"907":-0.04571911255635132,"908":-0.004804451512700389,"909":0.22017119239971897,"910":0.066477749389565,"911":-0.18289573518630323,"912":0.12402128302086368,"913":0.16975031380257438,"914":0.17249257999043235,"915":0.17933416661337037,"916":0.10548428495309008,"917":-0.10468283189094846,"918":0.18391818149057296,"919":0.08679496919499397,"920":-0.22326423216076738,"921":-0.1278781566747952,"922":-0.11738810772504632,"923":0.0216604733098365,"924":0.1666327113344136,"925":0.024925973184768184,"926":0.15162776430873068,"927":0.010281703129010963,"928":-0.04755515777861476,"929":-0.0759453679289737,"930":0.23316997620042382,"931":0.021586602673195347,"932":0.17508655839008913,"933":-0.11103825161283551,"934":0.191914164972441,"935":-0.13849505250244618,"936":-0.05974532352485039,"937":-0.21825998292666776,"938":0.08591323595861536,"939":-0.21423054158678023,"940":0.1723815586533022,"941":0.11401663152609473,"942":0.2099169931445828,"943":-0.23991837938778093,"944":-0.10067406263367708,"945":0.08213015203622831,"946":-0.16587959012528827,"947":-0.137366078160101,"948":0.09818175678658878,"949":-0.04598934743030708,"950":-0.1290390811513466,"951":-0.14265005298181158,"952":0.033328067143732695,"953":0.003425845594088137,"954":0.20929546217013617,"955":0.2255445566926887,"956":0.10009602594622367,"957":-0.02830790046891256,"958":-0.047448014166832385,"959":-0.044931388584143,"960":0.11983109522641922,"961":-0.006464462007981116,"962":0.17542864278560957,"963":0.14238765278409357,"964":0.1494642047936764,"965":-0.05452900677051024,"966":-0.17867941861776585,"967":-0.13156964767038282,"968":0.13592265499283815,"969":-0.07173737506351076,"970":0.16610587399796842,"971":-0.0032333912613970524,"972":-0.05108429752546321,"973":-0.0690808209919235,"974":-0.1331359439883992,"975":0.17124832076681543,"976":0.1395563813790101,"977":0.13495188198172803,"978":-0.08804003935163006,"979":0.12155530628825689,"980":0.0011701362037811502,"981":-0.00018804073758154916,"982":0.044826032565577406,"983":0.08687435206833738,"984":0.18301442012110325,"985":-0.09247343627261603,"986":-0.10341788423961747,"987":-0.05162710488688062,"988":0.1776404008059322,"989":0.1987852487247555,"990":0.24818852809144915,"991":-0.15412450209006603,"992":-0.1422344322841453,"993":0.0644912122172923,"994":-0.11761562018243303,"995":-0.06925376829180101,"996":-0.10651110989499518,"997":0.0013524278850863896,"998":-0.09299717851979522,"999":0.14795379310121087,"1000":0.05790867330815925,"1001":-0.11316984547741024,"1002":0.0681891718869397,"1003":-0.15158970210681733,"1004":0.10309169088335245,"1005":0.03971435325726531,"1006":0.000895362628524594,"1007":-0.03635723426991814,"1008":-0.07249620735259361,"1009":-0.0172808043790676,"1010":-0.16961613989765564,"1011":-0.17687952517321717,"1012":-0.0036036831580849313,"1013":-0.1311207156142145,"1014":-0.04513061728984546,"1015":0.13458029147833744,"1016":-0.15789035114939431,"1017":-0.1700158032949891,"1018":0.2205025696286017,"1019":0.011114731968964469,"1020":-0.0039857689306035055,"1021":-0.16683183881424674,"1022":-0.0850385323743141,"1023":-0.0836372614248777,"1024":0.16255957782789257,"1025":-0.15408256171814852,"1026":-0.11033538009958749,"1027":0.1749540441241355,"1028":0.046525343381097956,"1029":0.12522158055147747,"1030":0.08143562574152995,"1031":-0.13368496717528616,"1032":-0.13427859306661938,"1033":0.14400887725273392,"1034":-0.19948481736672663,"1035":-0.04325215686939763,"1036":-0.07552487204207076,"1037":0.09727218938634673,"1038":-0.15376771167498984,"1039":-0.08700891049925727,"1040":0.08815602680689201,"1041":0.12928401222452485,"1042":0.10158717798026588,"1043":-0.07353033291952771,"1044":-0.07519482626251925,"1045":-0.07886431394198459,"1046":0.061785862626003114,"1047":-0.02993424624143364,"1048":0.029333237780658696,"1049":-0.18664614309744149,"1050":0.05201202387137439,"1051":-0.1746810777178925,"1052":0.07124814092877689,"1053":-0.012390880928990025,"1054":0.12471434959258225,"1055":-0.0772408917281039,"1056":-0.15114265036932142,"1057":0.021432858653919012,"1058":0.1907049543882951,"1059":0.21353291323497772,"1060":-0.18995211383098295,"1061":-0.05177253312557443,"1062":0.10349968796936683,"1063":0.08960087824178413,"1064":-0.1632741158421072,"1065":-0.025285067210656945,"1066":0.1114881388875478,"1067":-0.1366338235955597,"1068":-0.12022522192145035,"1069":-0.03556592586339957,"1070":-0.026591392051943056,"1071":0.18145723452364368,"1072":-0.04474369744251969,"1073":0.026822505975586334,"1074":-0.16233037384315038,"1075":-0.00485755156978376,"1076":-0.16644684167653434,"1077":0.08714615282030068,"1078":0.1250779145114879,"1079":-0.21378645624716755,"1080":0.17485458352297736,"1081":-0.03922142099987702,"1082":-0.06920213325333442,"1083":-0.03513537742441681,"1084":-0.14795484085264426,"1085":0.04356822644422427,"1086":-0.10692962818584023,"1087":0.0857611772688916,"1088":-0.11388440058526592,"1089":-0.007548787138710474,"1090":0.051473290314860094,"1091":-0.12709944778615923,"1092":-0.11197076916878979,"1093":0.006221197006568173,"1094":-0.05996730621499977,"1095":0.12324760234045849,"1096":-0.24044119950903164,"1097":-0.038589472907307125,"1098":0.061470821506495535,"1099":-0.2471355132764258,"1100":-0.12248197061176526,"1101":0.05200340468818266,"1102":-0.041873518653499746,"1103":-0.18472474082902585,"1104":-0.11933562130408491,"1105":0.103094716572452,"1106":-0.09556777217661697,"1107":0.0032965047257977904,"1108":0.07485906753127679,"1109":0.02452830976306408,"1110":0.08865112255688072,"1111":-0.0177229697569646,"1112":0.16283779873874926,"1113":0.17972198628883512,"1114":-0.09131675538854085,"1115":-0.06418217756580484,"1116":0.13328600161251247,"1117":-0.23575345750137133,"1118":0.048524663503995674,"1119":0.1670368843631208,"1120":0.1622474719052866,"1121":-0.057760262279049665,"1122":-0.09451173026663919,"1123":0.040352023985323726,"1124":0.1431285010796158,"1125":-0.02516056806116625,"1126":-0.20872890063909963,"1127":0.056206597547407464,"1128":0.012399486819043364,"1129":0.13969362972835908,"1130":0.11653649607836741,"1131":-0.01013447432862185,"1132":0.15874177913577386,"1133":0.1085168379432272,"1134":0.1509671956220706,"1135":0.19153150852239836,"1136":-0.02261916813478557,"1137":0.06944704969657055,"1138":-0.23257451260057677,"1139":-0.1266265248014012,"1140":0.10193995459309957,"1141":-0.11662065133577731,"1142":-0.08567471329484605,"1143":0.30080166809678555,"1144":0.080045694943342,"1145":0.07338664470782327,"1146":0.07990137743244338,"1147":0.09930027272132161,"1148":-0.1796545652250041,"1149":-0.042053761290727,"1150":-0.18623753780573415,"1151":-0.07500910985418419,"1152":0.14487488008565164,"1153":-0.16334708345729823,"1154":-0.17761034255199867,"1155":0.004237328885582837,"1156":-0.1859857275905087,"1157":0.13654837844355786,"1158":-0.09812393363052754,"1159":0.00405650954149042,"1160":0.10228926188528899,"1161":-0.05769955334617159,"1162":-0.005719906360838751,"1163":0.0023418433819000946,"1164":-0.03528156512665196,"1165":0.08148228339342371,"1166":-0.03896092395438816,"1167":0.10679636902267618,"1168":0.12158828505220658,"1169":-0.08051554749387896,"1170":0.13573406712222455,"1171":0.045268331866570546,"1172":0.002514260971086693,"1173":0.15171937326669252,"1174":0.032392130714075304,"1175":0.1924526470136114}},"2":{"bias":0.014562051254219966,"weights":{"0":0.024387666697522386,"1":0.17125316146129496,"2":0.12607175477770494,"3":0.01224649245670718,"4":-0.06509747292428286,"5":-0.046503857714182216,"6":0.2093346881257091,"7":-0.026931648139348088,"8":0.044736332224353755,"9":-0.020424588588979303,"10":0.09904981308304926,"11":0.19409850645578428,"12":-0.12181463755256178,"13":-0.1496555282760997,"14":-0.21361088297295988,"15":-0.07682340877745598,"16":-0.11897906888430246,"17":-0.07621894612514137,"18":-0.10648752964905613,"19":-0.022612533922951022,"20":-0.0035464212113216612,"21":-0.02209873615325744,"22":-0.12422580883857419,"23":0.04918973554220837,"24":-0.007039093454540556,"25":-0.09830605801604654,"26":0.1433798165702355,"27":-0.06818034201590473,"28":0.0223294926973016,"29":0.07008514289693286,"30":0.04494633504823169,"31":-0.042891156554568766,"32":0.048452148407004285,"33":-0.018962152418191942,"34":0.16225627387733757,"35":-0.02957381886336147,"36":-0.018274163100620078,"37":0.18070640170878827,"38":0.04935478934850677,"39":0.021156238612793518,"40":-0.05920300829678184,"41":-0.19002790984345974,"42":0.15277145208475448,"43":0.2124999879782702,"44":-0.18151715927820342,"45":-0.14709760471860286,"46":0.08454361779512608,"47":0.09443737228335568,"48":0.18859069567395792,"49":0.16573168490712378,"50":0.08587354680037,"51":-0.23315588886513317,"52":-0.11276644349399682,"53":0.05421621504457236,"54":0.15691320023309022,"55":0.20017309526314123,"56":0.18500965779337838,"57":-0.019024792808081874,"58":-0.03465289262064969,"59":0.07037826386856585,"60":0.2707861816363473,"61":0.053776681270641134,"62":0.04919232757542012,"63":-0.0441496538499037,"64":0.10443105751958609,"65":0.07800316569640811,"66":0.1432591918046085,"67":0.13826899694378544,"68":-0.002257489567549179,"69":-0.0504088830747413,"70":0.13694330390735446,"71":-0.10257854294176554,"72":0.1809153342020877,"73":0.25197100644850007,"74":0.31388101706043303,"75":-0.2608205028632481,"76":-0.06588758038112534,"77":0.15430669324652793,"78":0.2104424521443027,"79":-0.06516112793704197,"80":0.032650071190823166,"81":-0.20687651614461144,"82":-0.12308311230391313,"83":-0.03649119949232188,"84":0.1940753735749113,"85":-0.21087566220603562,"86":0.19640559492844328,"87":0.16669768623987904,"88":0.010925271329789323,"89":-0.10883132416571809,"90":0.12818860817626523,"91":0.1879606344379306,"92":-0.21585333658780975,"93":0.11594102377456361,"94":-0.04890352974147761,"95":0.20311960665374296,"96":-0.11723856177678699,"97":-0.16848904470576487,"98":0.1113874360139865,"99":-0.2577912604278816,"100":0.16665403264958217,"101":0.164312716059883,"102":0.020005075222936958,"103":-0.11526484941524337,"104":-0.13359683778361814,"105":-0.22866603095045956,"106":-0.01980514465111091,"107":0.330760757922352,"108":-0.1143771840280962,"109":-0.18159648106368562,"110":0.12152933692790449,"111":-0.034414023497393316,"112":-0.16917598347528806,"113":0.17170356280523996,"114":-0.18601963517471828,"115":0.1274723509076471,"116":-0.003611624626836441,"117":-0.0027812072334404375,"118":0.10794663793909158,"119":0.08937852341503437,"120":0.13259926071278447,"121":-0.17394881767946965,"122":0.15417006507092623,"123":-0.04370839329731011,"124":0.23849709417291592,"125":0.04149017555815691,"126":0.14162909695561174,"127":-0.13985253690290342,"128":-0.0720293475071329,"129":-0.16802184998218572,"130":0.057130764560690106,"131":-0.13882147506847606,"132":0.02140392172856964,"133":-0.21706133683051565,"134":-0.1407047847940243,"135":-0.07719735455915963,"136":-0.030498807696597633,"137":0.05467986295484592,"138":-0.03877913777586442,"139":0.15163925462214728,"140":-0.19459520289638213,"141":-0.07154106264435821,"142":0.023736751045098578,"143":-0.188671140152044,"144":0.08154064315818246,"145":-0.0017403608483562518,"146":-0.015600788830631838,"147":-0.10894403747851551,"148":-0.15754883373034234,"149":0.06460270706708848,"150":0.06545810199950691,"151":-0.0499094384249277,"152":-0.17357270386573292,"153":0.1030212491962415,"154":-0.04913477069519131,"155":0.06898170026684802,"156":0.06927016638923408,"157":0.16254145849553833,"158":0.16200940171255293,"159":-0.25696186954796046,"160":-0.07216027947827053,"161":0.01179966595679019,"162":-0.1859607922018926,"163":-0.05986445153721903,"164":0.10830156213076511,"165":0.046078827568708985,"166":0.12492854071304163,"167":-0.032401515217317496,"168":-0.11170536999286047,"169":0.09547074576020388,"170":-0.13767224430412625,"171":0.15377160463305736,"172":0.018798713649374032,"173":0.10211314182844107,"174":-0.024014707359905085,"175":0.1747947221962041,"176":-0.020886987364425746,"177":0.09083680106879691,"178":-0.04283724755420936,"179":0.16321172845962592,"180":-0.03463676524582152,"181":-0.013240293651168892,"182":-0.09021544692479906,"183":-0.06135914768283699,"184":-0.040854200801642586,"185":-0.03751095162553989,"186":0.09319317446354859,"187":0.08586717975893768,"188":-0.10525041554003528,"189":-0.15352128541738927,"190":-0.12655145962145486,"191":0.13097795279466526,"192":0.05997300845050293,"193":-0.13749619190372536,"194":-0.10061593851058696,"195":0.14677653218395284,"196":-0.0018461273951125238,"197":-0.2000025272676368,"198":-0.09519229817217154,"199":0.16789705718815243,"200":0.10243728224310224,"201":-0.016642795219683763,"202":-0.0911730259287141,"203":0.03149650839909763,"204":0.13309022374640003,"205":0.11603845952189198,"206":-0.2518549970884617,"207":0.10448091680832472,"208":-0.1056880528430955,"209":0.17327469367181575,"210":0.10389675287484382,"211":-0.08844958700388432,"212":0.09777569963355862,"213":-0.20437222632766802,"214":-0.01988898699897471,"215":0.02624702106568053,"216":0.13142221609888682,"217":0.2707363709558393,"218":-0.022620638553491258,"219":0.14270305563035401,"220":0.13692843997742818,"221":0.06987936722500525,"222":-0.12437958958628295,"223":-0.0668245384848346,"224":-0.06003615932457974,"225":0.029076708922344686,"226":-0.15469695525854088,"227":-0.13028167880197464,"228":-0.026720401833618384,"229":-0.10042178802550479,"230":-0.09972844641345269,"231":-0.07274122067841965,"232":-0.17504020230843956,"233":0.03237661517408702,"234":-0.22940942340498954,"235":0.001641591374335755,"236":0.08309950691306518,"237":0.10623293395158522,"238":0.22831877762853475,"239":-0.016383134286773682,"240":0.16341549507835867,"241":0.006212585444473777,"242":0.07746342973725866,"243":-0.041488791105362445,"244":0.12913500943162148,"245":-0.1821175269998602,"246":-0.1823237005099803,"247":0.0992027736915077,"248":-0.03616537969934014,"249":0.14032120756163427,"250":-0.109851062054799,"251":0.15579566809565462,"252":-0.08930195032945615,"253":-0.09092790501861249,"254":-0.09163100303526855,"255":-0.05879481882046126,"256":-0.0028286635122373514,"257":0.17760545822697094,"258":-0.1270804165153227,"259":-0.004986252552980847,"260":0.08044458708268773,"261":-0.11776508569213258,"262":0.11422322087116578,"263":-0.20271407333789843,"264":-0.18530541263974726,"265":-0.09830362536196038,"266":-0.09370290696911704,"267":-0.13884936901149186,"268":0.053436544290214556,"269":0.11158128411303904,"270":-0.12475113977101589,"271":0.13612950175697125,"272":-0.1463609929360797,"273":0.14264228462403195,"274":0.22002955169316074,"275":0.20373280940170246,"276":0.10501797969718547,"277":0.04253228679664389,"278":-0.04381008259332417,"279":-0.06688163270426384,"280":0.013699163328809608,"281":-0.0725191747124511,"282":-0.09785313049332713,"283":-0.043319859434890216,"284":-0.2035095490982992,"285":-0.08339716017214074,"286":-0.040381396779938454,"287":-0.15130417311935074,"288":0.18546662915387754,"289":-0.20098822272678127,"290":0.012419561958298497,"291":-0.17607847764055184,"292":-0.02898673948298072,"293":0.06580552497744037,"294":-0.07219175382063354,"295":-0.047409350277585714,"296":0.06709127921308446,"297":-0.06341272290348114,"298":0.09088129879367722,"299":0.16666502863621374,"300":0.019289918439381024,"301":-0.14381301802647228,"302":0.04716156387901264,"303":-0.06931108139842451,"304":0.09940803939590596,"305":-0.10079488511974968,"306":-0.039986105008862134,"307":0.06377651847303571,"308":0.010719562789089502,"309":-0.0816770373270843,"310":-0.1096077134903276,"311":-0.13917715065425088,"312":0.17543284166234419,"313":-0.023255844269987187,"314":0.022005331498956587,"315":-0.14569663817137377,"316":0.13354319012140056,"317":0.07698202302977085,"318":-0.06578050084193375,"319":-0.0980793902364999,"320":-0.11150493192239656,"321":-0.20066957939447275,"322":-0.12581620394983858,"323":-0.07635738743685329,"324":0.2443189729187799,"325":0.18754023194890185,"326":-0.03417198965125905,"327":-0.19972302224804608,"328":-0.242236404811155,"329":0.06341115603349433,"330":0.14440919755770418,"331":-0.027763070619080427,"332":0.17672971536818669,"333":0.1682759276369109,"334":-0.0270430595820355,"335":0.08680741247070975,"336":0.12791169289384602,"337":-0.19167567148010797,"338":0.04207519817149479,"339":0.023335160298529566,"340":-0.14430346355935358,"341":0.1635326760715702,"342":0.24288669217642211,"343":0.1795686140184221,"344":0.1141143487071559,"345":0.018236979323551526,"346":0.10026092366015261,"347":-0.0037937083296769405,"348":0.24664502448529796,"349":0.13819646812321373,"350":0.08346588598605728,"351":0.08517139421122846,"352":0.12166282249871205,"353":0.10298698652249993,"354":0.15955758569406647,"355":0.05949766902328484,"356":-0.26518069082411644,"357":-0.04265006591820542,"358":-0.024966537772804876,"359":-0.16265722041284397,"360":0.2063987279749702,"361":-0.134187468688988,"362":-0.06692832272551306,"363":-0.2071768323570867,"364":-0.08189175446384991,"365":0.16218867309632243,"366":0.2371259797667325,"367":-0.09190736465800148,"368":-0.1282861959145288,"369":-0.004327015743598852,"370":0.12307938073747819,"371":0.02909956892620864,"372":-0.1718073972585731,"373":-0.15762657729312624,"374":-0.1744752453749391,"375":-0.062386050983597174,"376":0.08412021037107366,"377":-0.15878098787096237,"378":0.05456348818265528,"379":0.11934176832552665,"380":0.0345306290288921,"381":-0.08553758856030858,"382":-0.17414586723908423,"383":0.248216104473309,"384":0.32802884748143973,"385":-0.08355815510535153,"386":-0.08450335254166877,"387":-0.16672025524081122,"388":-0.0981897910052861,"389":-0.047667856948883855,"390":-0.10149920895585922,"391":-0.06366491552300871,"392":-0.011791075481995346,"393":0.0026443898510708406,"394":-0.07274889888795968,"395":-0.11250886309836645,"396":0.1219289240265541,"397":-0.08016560456374495,"398":-0.04247995469731189,"399":0.006171554710031673,"400":0.003747641129492685,"401":0.01975531992486248,"402":0.1137011675534381,"403":-0.15949194301770211,"404":-0.15491554050244538,"405":0.0034459143790986574,"406":0.11440223986958384,"407":-0.14610607325286207,"408":-0.09818152511442181,"409":-0.09152424332153457,"410":-0.15884697161596115,"411":-0.10146752424581755,"412":0.03388707027322392,"413":-0.07853829018809566,"414":-0.01975350853152564,"415":-0.06644033210872925,"416":0.07460485205662164,"417":-0.012554169485404698,"418":0.018007995699654722,"419":0.011197029017556183,"420":-0.1313766022684332,"421":0.0815482987170046,"422":0.03857756672546775,"423":-0.017298379386810416,"424":-0.23490223716750128,"425":-0.0018609505472951863,"426":0.16287021031079585,"427":0.0235703304909764,"428":-0.08939069303897826,"429":0.06774581062954214,"430":0.1209859137608514,"431":0.027181921013020915,"432":0.1615940474078671,"433":0.10312124996382752,"434":0.1746552303329117,"435":-0.022903736454939472,"436":-0.04309107382137553,"437":-0.19101748365911478,"438":0.0930703159527846,"439":-0.0420259701529458,"440":0.12919335013131975,"441":0.12820774161462917,"442":-0.016556371574698876,"443":0.09129278967132852,"444":0.17200363638574057,"445":-0.09186007078776193,"446":0.07698240147279789,"447":0.1803537778867402,"448":-0.03249376252331611,"449":-0.05904736014990389,"450":-0.19173011826287772,"451":0.13703246753305928,"452":-0.18285558267606464,"453":0.12565655496707112,"454":-0.1634504428947898,"455":0.03167995739901142,"456":-0.06743190996019342,"457":0.023476023167506143,"458":0.014843523405269085,"459":0.19259885481969535,"460":0.2224039209592969,"461":0.10040662913760884,"462":0.14629732026854245,"463":0.059576412039878394,"464":0.06731750867654503,"465":-0.10747975438285697,"466":-0.008880610284192266,"467":0.12549263933163887,"468":0.06904047864881913,"469":-0.2061755763043789,"470":-0.037589354332660696,"471":-0.1111005886444981,"472":-0.2023641222959846,"473":-0.1413690355346671,"474":-0.052348235778547796,"475":-0.016340320719548742,"476":-0.0764162469999069,"477":0.0473936451134472,"478":-0.06168997564770911,"479":0.12995501228777037,"480":0.09651559709603562,"481":0.04124628957210195,"482":0.13271115835884117,"483":-0.042225472422419405,"484":-0.11990334654725718,"485":0.10066841109621817,"486":-0.17643932796834777,"487":0.09699908428025393,"488":-0.1586050658497249,"489":-0.05356078406896634,"490":0.11623680264095146,"491":-0.18746340847527831,"492":0.03265486239392101,"493":-0.10239149727823271,"494":-0.16129325292318347,"495":0.13466251057208226,"496":0.019011345589181664,"497":0.11149021973990454,"498":-0.06813987543451361,"499":-0.14067596323404358,"500":-0.18677541049539517,"501":0.0025058193169572116,"502":-0.03024253329268958,"503":-0.16721814626089634,"504":0.310928805506088,"505":0.1346050946371826,"506":-0.11329476192404023,"507":-0.03096649515605626,"508":-0.15596309056030846,"509":0.038444996194800365,"510":0.029846573913385913,"511":-0.019613129604412156,"512":-0.2434758634210447,"513":-0.00796490028025212,"514":0.01938467040162833,"515":-0.16426437520180434,"516":0.05765184682147648,"517":0.10121350175739811,"518":-0.19032758314368872,"519":-0.16718799317140826,"520":0.09564888614907466,"521":-0.11232423104564992,"522":-0.197074680525465,"523":0.049296322538712745,"524":0.033282766723576176,"525":0.04303795747524161,"526":-0.09522307974740553,"527":-0.0041847435980909755,"528":-0.06701131794602633,"529":-0.13030678933294404,"530":0.08310073546450314,"531":-0.10261782143595459,"532":0.05661257351259769,"533":-0.043516234490030184,"534":0.061535086494095836,"535":0.060848888140878576,"536":0.12148411440253534,"537":0.12785263275349346,"538":-0.15088135287810037,"539":0.31635973719213306,"540":-0.014705550159643695,"541":-0.10375721792713852,"542":0.13081555440363005,"543":0.001841568898226677,"544":0.07249249223061435,"545":-0.00009171066996998116,"546":0.015211293126563547,"547":0.24717089308432566,"548":-0.0035510856236447945,"549":0.1253512895702144,"550":-0.0011478824272559151,"551":0.2527911266253207,"552":-0.01044401304834415,"553":0.0021351022964287663,"554":-0.0965110605100353,"555":-0.10936209447065666,"556":-0.12396760106481207,"557":0.18075242407070555,"558":-0.1265346192229555,"559":0.16640233423692039,"560":0.16075442421350294,"561":-0.05953534256482606,"562":-0.15271837332283497,"563":0.007131591689511578,"564":0.03545734276555863,"565":0.23849208429556065,"566":0.16341201387181653,"567":-0.014695040188702956,"568":0.029885691422096704,"569":0.2454020164939,"570":-0.06015974766205089,"571":0.0656075226823169,"572":-0.10975945724742324,"573":-0.013395969098876966,"574":-0.08804800152216596,"575":-0.11266507826597041,"576":-0.1273277980792642,"577":0.052139882440053284,"578":0.24730557674314177,"579":-0.024149031172925682,"580":-0.20726461321520898,"581":-0.07441459278855565,"582":0.1756568921263885,"583":0.07970713078405593,"584":-0.2213302351695181,"585":0.032927785941175736,"586":0.17351037937730587,"587":0.03904471324995053,"588":0.1491341445022391,"589":-0.14321953507800114,"590":0.09818550561710594,"591":0.1956939659062077,"592":-0.005039252554984205,"593":-0.05452177404858217,"594":-0.024503568781589005,"595":-0.052234079947313536,"596":0.02750793868233686,"597":-0.05036401282391962,"598":0.29575657518024634,"599":0.13639459593028266,"600":0.07842784318691512,"601":0.07098150057355895,"602":-0.06159030100272303,"603":-0.09027967190556165,"604":-0.08095108905021857,"605":-0.1329175614780501,"606":0.1479183285535274,"607":-0.2261466678404737,"608":-0.06004826734545755,"609":-0.10141282971315253,"610":0.06002045961524215,"611":-0.099444146554265,"612":-0.03154548833829802,"613":-0.09761194326020986,"614":-0.04423907922959504,"615":0.03966930139439342,"616":0.24699191910626161,"617":-0.09446347062513909,"618":-0.07910628516821187,"619":0.18720711483002078,"620":-0.019782409942876146,"621":-0.1276956982177178,"622":0.20574331806280965,"623":-0.07444028545033203,"624":0.17915642661531092,"625":0.16235977596814585,"626":-0.1039883734272086,"627":0.1016150509892003,"628":0.09430347050889805,"629":-0.090905891755363,"630":0.022590007034803964,"631":-0.13131951442951031,"632":0.12965094795789714,"633":-0.1701942336578546,"634":-0.18068658156526066,"635":-0.10120474988966861,"636":0.14837407349233514,"637":0.14643735501581936,"638":0.03943712862204871,"639":-0.19981637826660403,"640":-0.0682297164860374,"641":0.0367998524974222,"642":0.14728908171913702,"643":-0.12050212952969636,"644":-0.14938452621826173,"645":-0.08795442005593489,"646":0.11727301741549216,"647":-0.05102782832787378,"648":-0.10599980181943502,"649":0.23109121246257366,"650":0.05041372768679375,"651":-0.1018367168099075,"652":0.14331105110847764,"653":0.11749096794862082,"654":0.11965695072921988,"655":-0.021939820821810986,"656":0.14192511052814655,"657":0.025705068297129846,"658":-0.1986799983561492,"659":-0.1796696935033862,"660":-0.07861809064159467,"661":0.06930454781591916,"662":0.10465652355753866,"663":-0.010083378156843088,"664":0.19100184087382366,"665":0.003821346642972181,"666":-0.07669868164319477,"667":0.07856614296055119,"668":-0.09535483999956447,"669":-0.058064687554911676,"670":0.2586954603000382,"671":0.15870459842242032,"672":0.10555308897268044,"673":-0.1183078964790125,"674":-0.030092904463747558,"675":-0.0004693361581791149,"676":-0.07020619445903642,"677":0.04776873662709107,"678":0.06294653607775566,"679":0.16320128168442596,"680":-0.009307543846242635,"681":-0.12308869647144582,"682":0.08399277771604413,"683":0.15503161554198663,"684":0.08547748055440886,"685":-0.13448274663908033,"686":0.032720622969242566,"687":-0.1384037864417061,"688":-0.17324359190888405,"689":0.11733746253574362,"690":0.18022033875620055,"691":0.049707153813817614,"692":-0.05106245728982604,"693":-0.11232173755079955,"694":-0.22091670045169856,"695":-0.0872333382904983,"696":-0.21778737652205113,"697":0.18309891579518195,"698":0.13814197271000225,"699":-0.05604563306478488,"700":0.16608904907201877,"701":0.057728115953760276,"702":-0.12386132306580497,"703":0.18208230682370002,"704":0.13702362607314464,"705":0.021645178097658337,"706":-0.01639376396919307,"707":0.09075388774858312,"708":0.10129144536276014,"709":0.15717478226580556,"710":0.07756289525761129,"711":-0.04285307083774648,"712":0.14411698625657027,"713":-0.21277640751848695,"714":-0.0806247466399657,"715":0.011423003079601975,"716":-0.0475831463528623,"717":0.009602096177465215,"718":-0.0802462440208364,"719":-0.11729858816278245,"720":0.08123254564210824,"721":0.13844208564812208,"722":0.10410409923070145,"723":-0.12269799922042038,"724":-0.11335857445436162,"725":0.2696508380771509,"726":0.11657066929699357,"727":-0.039960912241697885,"728":0.09977820942715554,"729":-0.031416587879134844,"730":0.0620844985947452,"731":0.03695694268701058,"732":0.11616453105148675,"733":0.0407151872133057,"734":0.15100622129306315,"735":0.12444324639223267,"736":-0.018030949361034256,"737":0.2584664072217514,"738":0.10187110556770237,"739":0.11621702154737816,"740":0.09419835604208192,"741":-0.023704502549186525,"742":-0.08959463041357875,"743":-0.089385057589123,"744":-0.02759758856439818,"745":0.10606196096403771,"746":-0.03213550042589204,"747":0.12717530929451118,"748":0.09127153731479437,"749":-0.1262519172420856,"750":-0.23943931812483893,"751":-0.15616339186606645,"752":-0.014376748242573605,"753":-0.13495221684436556,"754":-0.07701453233322755,"755":0.0743311314077495,"756":-0.1782567551527914,"757":0.010864877309935975,"758":-0.03130170429358606,"759":0.094704335153145,"760":0.13534844155087003,"761":0.18856578648537234,"762":-0.24419711107418918,"763":-0.12357277633141141,"764":-0.02257363050515308,"765":0.20433451404853076,"766":0.17692304702484837,"767":0.0004646156676312787,"768":-0.15119312969995335,"769":-0.050253829154709634,"770":0.14334205602440508,"771":0.08383828754243064,"772":0.07525189628035793,"773":0.011624298778996192,"774":0.17818401277203266,"775":0.20325453846456537,"776":0.10813999590358665,"777":0.018060349724178054,"778":-0.16472856219748105,"779":-0.043577358937127504,"780":0.002223666012203516,"781":0.06588534077848485,"782":0.11970728870419367,"783":-0.15493863519504644,"784":-0.03664580234366603,"785":0.05173178792835969,"786":-0.259974186891699,"787":0.05909590120212853,"788":0.16176606431902976,"789":-0.04473013257232175,"790":-0.1492188156204342,"791":-0.11921124784160311,"792":-0.0374574577860226,"793":0.23247418044490942,"794":-0.022614464995334933,"795":0.07384458142922723,"796":0.13033959226302783,"797":-0.035138817066662456,"798":0.2274797471250884,"799":-0.09503264683972455,"800":0.16821618932981808,"801":0.1716612721695412,"802":0.08476778111237344,"803":0.09363015260715775,"804":0.08668590635068656,"805":0.24910975809313946,"806":0.06687644070880105,"807":-0.07147428958215,"808":0.07521512093181776,"809":-0.022540645453721666,"810":0.11613017692219256,"811":-0.10518206419534827,"812":-0.20765083201245704,"813":0.05832920398005062,"814":-0.053954907971424326,"815":-0.1107887302231776,"816":0.1683164268778399,"817":0.12982953894026408,"818":-0.14427027929063244,"819":-0.1697476809370406,"820":0.1573404615551188,"821":0.09527377308507388,"822":0.182143076901563,"823":-0.13772133311231424,"824":0.04888682701093674,"825":0.10128563771039774,"826":0.08361678157814793,"827":0.17532048390552862,"828":0.14518271495474244,"829":-0.21058711907326524,"830":0.1484396442388807,"831":-0.059266924180341275,"832":0.10286817240899668,"833":0.1598947450819619,"834":-0.10002642289875956,"835":0.11289558829453322,"836":-0.05581685791459879,"837":0.11638274116934344,"838":-0.004406855194586717,"839":-0.16081219930260554,"840":-0.005239031539615184,"841":-0.020267805835604384,"842":-0.04882800083676773,"843":0.23436108419512405,"844":-0.13198388019841245,"845":-0.13542597384219554,"846":-0.04742948451109146,"847":-0.06572475400855624,"848":0.06251445626334548,"849":0.044481461281402644,"850":-0.09051214186314419,"851":-0.12483298719666497,"852":0.022958933598687656,"853":-0.09299450644650491,"854":-0.004395804364315743,"855":0.007577429716040657,"856":-0.16258365953494458,"857":-0.025208387799403858,"858":0.23937001562887805,"859":-0.00507304516096375,"860":-0.14438989206786487,"861":-0.1253561601197259,"862":-0.19399748547198495,"863":0.08264398238054285,"864":-0.10936586824169482,"865":0.23701219892409375,"866":0.08464595829838538,"867":0.12700120194499842,"868":-0.044817197011441864,"869":-0.05455664977192154,"870":0.10790649134082426,"871":0.061879305638891,"872":0.023898394449242636,"873":-0.04170306116355358,"874":0.23850143202981403,"875":0.08303106259500086,"876":0.12211671570494886,"877":0.23969406082759814,"878":-0.08044052046575326,"879":-0.04704323880302449,"880":0.08778763988447466,"881":0.058337432975610524,"882":-0.1049093343605451,"883":0.17360970221344155,"884":-0.12371818537057297,"885":-0.2798596580863822,"886":-0.0940836001397772,"887":0.1585007724667824,"888":-0.22367196318364765,"889":0.05589246779391528,"890":0.23544522206360696,"891":0.11041085473521012,"892":-0.10292669510326705,"893":-0.09776473509397657,"894":-0.03743902397096611,"895":-0.09975400532896436,"896":0.19907010301577818,"897":0.02127673016618524,"898":-0.04900409318570275,"899":0.07447773624078574,"900":-0.10299344591965923,"901":0.13402228709839037,"902":-0.1072177914916011,"903":-0.2710343357416148,"904":0.051443954149494577,"905":-0.14242610675844683,"906":-0.019455614890456493,"907":-0.05098801603902644,"908":0.06284228816919392,"909":0.06163806744646181,"910":-0.047269545893656215,"911":0.1321046645511102,"912":-0.21588104600333313,"913":-0.07406977463635966,"914":0.10153836520999458,"915":0.007301281312795481,"916":0.004589526594112365,"917":0.1872071200286096,"918":-0.2849749464655203,"919":0.10843432472877525,"920":-0.06156694372081532,"921":-0.13930357153459172,"922":-0.03413467417102037,"923":0.014653130005744731,"924":-0.19755171013584363,"925":0.05927394630622675,"926":0.174598561609427,"927":0.1276469410162074,"928":-0.08392826449005035,"929":-0.04221293760247054,"930":0.06717238979226103,"931":0.14410209596656212,"932":0.018531933056270558,"933":-0.1735612934727413,"934":0.006629592796576504,"935":0.0777552639773108,"936":0.1405686378602531,"937":-0.09289184564338825,"938":0.16378968816522133,"939":0.12148248159894293,"940":0.0207611953953736,"941":-0.15967983502643018,"942":0.02926193322150978,"943":0.03992824674984397,"944":0.17505557666088084,"945":-0.07781265976869545,"946":-0.024910594161938766,"947":0.22981630641314002,"948":-0.06458284226805773,"949":-0.03103475997137441,"950":-0.0034865390537965548,"951":0.06793433437014952,"952":-0.09408266282202166,"953":0.030140607646139937,"954":-0.19498748048218897,"955":0.06247109235042405,"956":-0.1738041957538528,"957":-0.07016102623568946,"958":-0.2174961267852583,"959":0.19374015483518472,"960":-0.03684971593369815,"961":0.04070070178301154,"962":0.18655870145016032,"963":0.059703313143668696,"964":0.15534139185293966,"965":0.17649323508159395,"966":0.06895942313346198,"967":-0.11601200221381014,"968":-0.14419498505337563,"969":-0.14731303413167082,"970":0.0858958872614606,"971":-0.11862550077744487,"972":0.09842126078478808,"973":-0.10285094028812902,"974":-0.1008775368206913,"975":0.02517141502816194,"976":-0.07422066060169931,"977":-0.011302329081452097,"978":-0.11670543320169462,"979":0.10406143723565535,"980":-0.19727369117023516,"981":0.0961744141444264,"982":-0.023528864384830518,"983":-0.07725908849047128,"984":-0.1460960411640232,"985":-0.049871394735825275,"986":-0.08766453195591,"987":-0.00969633875369341,"988":-0.1091757291218179,"989":0.12838853513656617,"990":-0.22484181474082537,"991":-0.18402189123348497,"992":-0.2235490985819909,"993":0.19753922149365716,"994":-0.022541955124176553,"995":-0.08228104386615412,"996":0.0948222903737329,"997":-0.14087363568381697,"998":-0.10935643364487169,"999":-0.18975319493720363,"1000":0.06576865402708096,"1001":-0.041601986694985105,"1002":0.09106861885966949,"1003":0.11775423519704942,"1004":-0.13093111176044,"1005":0.2045389241837491,"1006":0.0774317810604222,"1007":-0.1570654723083603,"1008":-0.01331559026260751,"1009":0.1645479546903812,